{"transformer": {"trained": true, "refine": true, "shave": true, "use_pca": false, "triangulate": false, "n_components": null, "x_shaver": null, "y_shaver": {"n_tot": 50, "tmat": [[1.0, 0.0, 2.0, 6.0, 0.0998048484325409, 1.9859763383865356, 1.5246858596801758], [3.0, 2.0, 0.0, 4.0, 0.1072709783911705, 1.8840352296829224, 1.9985697269439697], [5.0, 4.0, 2.0, 6.0, 0.12355172634124756, 2.11898136138916, 0.31407010555267334], [7.0, 6.0, 2.0, 9.0, 0.11135989427566528, 1.9025886058807373, 1.978529453277588], [8.0, 6.0, 2.0, 9.0, 0.11179444193840027, 1.9686697721481323, -2.2758193016052246], [11.0, 10.0, 13.0, 9.0, 0.11087394505739212, 1.9406235218048096, -2.1863155364990234], [12.0, 10.0, 13.0, 9.0, 0.11115764081478119, 2.0232179164886475, 2.1002237796783447], [14.0, 13.0, 15.0, 10.0, 0.11033157259225845, 2.091892957687378, 2.930644989013672], [17.0, 16.0, 15.0, 20.0, 0.11110344529151917, 2.025509834289551, -0.8339838981628418], [18.0, 16.0, 15.0, 20.0, 0.11114877462387085, 1.9068660736083984, 1.2295761108398438], [19.0, 16.0, 15.0, 20.0, 0.11101806908845901, 1.7622631788253784, -3.0041592121124268], [21.0, 20.0, 15.0, 23.0, 0.11118434369564056, 1.9190901517868042, 2.1358768939971924], [22.0, 20.0, 15.0, 23.0, 0.11158842593431473, 1.7163283824920654, -2.080246925354004], [25.0, 23.0, 26.0, 20.0, 0.1106439158320427, 1.8660907745361328, 2.164869546890259], [24.0, 23.0, 26.0, 20.0, 0.11148041486740112, 2.0098705291748047, -2.0478322505950928], [27.0, 26.0, 28.0, 23.0, 0.1100589781999588, 1.9132106304168701, -2.520118236541748], [30.0, 29.0, 28.0, 39.0, 0.11119800806045532, 1.9374853372573853, 0.6334779858589172], [31.0, 29.0, 28.0, 39.0, 0.11114385724067688, 1.900937795639038, 2.711690902709961], [32.0, 29.0, 28.0, 39.0, 0.11148539930582047, 1.9081300497055054, -1.3377515077590942], [34.0, 33.0, 36.0, 28.0, 0.11164657771587372, 1.7862430810928345, -2.170217990875244], [35.0, 33.0, 36.0, 28.0, 0.11136889457702637, 1.8108762502670288, 2.1735622882843018], [37.0, 36.0, 39.0, 33.0, 0.11066152900457382, 1.854772925376892, -2.055236339569092], [38.0, 36.0, 39.0, 33.0, 0.11110816150903702, 2.057335615158081, 2.211982488632202], [40.0, 39.0, 41.0, 36.0, 0.10949869453907013, 1.988386631011963, 2.9939136505126953], [43.0, 42.0, 41.0, 46.0, 0.11024942249059677, 1.8951066732406616, -0.974463701248169], [44.0, 42.0, 41.0, 46.0, 0.1110229343175888, 1.8890410661697388, 1.0954399108886719], [45.0, 42.0, 41.0, 46.0, 0.1109369620680809, 2.067601442337036, -3.016468048095703], [48.0, 46.0, 41.0, 39.0, 0.11164648830890656, 1.9550145864486694, 0.22144724428653717], [47.0, 46.0, 41.0, 39.0, 0.11031772941350937, 2.056551694869995, -2.1026625633239746], [49.0, 46.0, 41.0, 39.0, 0.1107160821557045, 1.7751576900482178, 2.172919273376465]]}, "x_fitter": {"mean": [[5.060995578765869, 4.854886531829834, 3.5275723934173584], [4.89378023147583, 4.926389217376709, 3.6733224391937256], [4.7160820960998535, 4.990755081176758, 3.888765811920166], [4.701980113983154, 4.8694658279418945, 4.206418991088867], [4.748763561248779, 4.675431251525879, 4.448684215545654], [4.579608917236328, 5.045317649841309, 3.9380078315734863], [4.755428791046143, 4.806549072265625, 4.285804271697998], [4.748653411865234, 4.648005962371826, 4.489843368530273]], "max_its": 10, "drmsd": 0.01, "converged": true}, "y_fitter": {"mean": [[5.024562835693359, 4.8173909187316895, 3.5120773315429688], [5.012957572937012, 4.872358798980713, 3.540391445159912], [5.084162712097168, 4.883073806762695, 3.5198185443878174], [4.935651779174805, 4.90683650970459, 3.640676736831665], [4.858308792114258, 4.945990562438965, 3.671969413757324], [4.776343822479248, 4.973522663116455, 3.7909886837005615], [4.6845197677612305, 5.004955291748047, 3.8231234550476074], [4.626901149749756, 5.011991500854492, 3.922151803970337], [4.537887096405029, 5.044358253479004, 3.9356656074523926], [4.646664142608643, 4.988264083862305, 4.022273540496826], [4.658771514892578, 4.936576843261719, 4.108992099761963], [4.6960906982421875, 4.899890899658203, 4.162172317504883], [4.724246978759766, 4.834191799163818, 4.251149654388428], [4.7580695152282715, 4.809538841247559, 4.290310382843018], [4.723024845123291, 4.7840046882629395, 4.3155951499938965], [4.7420654296875, 4.7231221199035645, 4.3795013427734375], [4.752509593963623, 4.6819915771484375, 4.420403480529785], [4.760085582733154, 4.643281936645508, 4.4664154052734375], [4.770079135894775, 4.605867862701416, 4.503822326660156], [4.758975028991699, 4.6337571144104, 4.485549449920654]], "max_its": 10, "drmsd": 0.01, "converged": true}, "x_refiner": {"max_its": 1000, "tol": 0.001, "fc": 0.1, "n_atoms": 8, "restraints": [[0, 1], [1, 2], [2, 5], [2, 3], [3, 6], [3, 4], [4, 7], [0, 2], [1, 5], [1, 3], [2, 6], [2, 4], [3, 5], [3, 7], [4, 6]], "d_ref": [0.29771890322528494, 0.3097928115158525, 0.21119954535745647, 0.3786801197355446, 0.21113875684842426, 0.40789909982325845, 0.16181331375347058, 0.5605113122107106, 0.4718050286119967, 0.6056607949235127, 0.526645793283642, 0.6675990914217622, 0.397619349893083, 0.4929702917575949, 0.4269777213616729], "result": null}, "y_refiner": {"max_its": 1000, "tol": 0.001, "fc": 0.1, "n_atoms": 20, "restraints": [[0, 1], [1, 2], [1, 3], [3, 4], [4, 5], [5, 6], [6, 7], [7, 8], [7, 9], [9, 10], [10, 11], [11, 12], [12, 13], [12, 14], [14, 15], [15, 16], [16, 17], [17, 18], [17, 19], [0, 2], [0, 3], [1, 4], [2, 3], [3, 5], [4, 6], [5, 7], [6, 8], [6, 9], [7, 10], [8, 9], [9, 11], [10, 12], [11, 13], [11, 14], [12, 15], [13, 14], [14, 16], [15, 17], [16, 18], [16, 19], [18, 19]], "d_ref": [0.14592762954676988, 0.15281185761045932, 0.15595421869854206, 0.1827235242272007, 0.1822842788986434, 0.15119401055359843, 0.13489393988921222, 0.15099870145507466, 0.15166169177994382, 0.15573047148107486, 0.15125876795195567, 0.13519093758521228, 0.15103098437710663, 0.15144722537632938, 0.15537109166582325, 0.1511646250313771, 0.13491113829046295, 0.1503060163018259, 0.15066460159554612, 0.2507860460997759, 0.2523435316292189, 0.2847127279753087, 0.2560628180874843, 0.2761206104337476, 0.2765288435906386, 0.2568251454623225, 0.24582482584584686, 0.25267482292656696, 0.25967128343023493, 0.2583320724648017, 0.2573428892448773, 0.25753936207864747, 0.24577510542953201, 0.2529899668375119, 0.2593216253369487, 0.25824112248857106, 0.2567873698760025, 0.25650144412873893, 0.2480030207642657, 0.25278280759187666, 0.2526060737018484], "result": null}, "pca_x": null, "pca_y": null, "xy_regressor": {"fit_intercept": true, "copy_X": true, "n_jobs": null, "positive": false, "n_features_in_": 24, "coef_": [[839.4053955078125, -96.24911499023438, -5128.759765625, 661.1502075195312, -700.9784545898438, -5036.25341796875, 547.425537109375, -1342.639892578125, -4938.15087890625, 1160.940185546875, -1394.174560546875, -4930.20166015625, 1995.4610595703125, -1225.93603515625, -4956.6943359375, 377.820068359375, -1835.5770263671875, -4862.37939453125, 1432.054443359375, -1201.49853515625, -4960.04541015625, 2117.158447265625, -1226.2607421875, -4956.6689453125], [-2171.27978515625, -1351.890625, 3735.97998046875, -2408.511962890625, -2555.227294921875, 4052.419921875, -2579.32177734375, -4028.068359375, 4351.890625, -1879.504150390625, -5108.0087890625, 3970.6904296875, -899.2059326171875, -5678.75634765625, 3324.1689453125, -2793.81591796875, -4785.8505859375, 4598.2744140625, -1561.1627197265625, -5127.29443359375, 3740.822509765625, -756.8639526367188, -5811.1806640625, 3236.186767578125], [3211.31103515625, -495.85443115234375, -3492.91357421875, 2941.348388671875, -195.0659637451172, -3949.478515625, 2521.7275390625, 212.6127471923828, -4418.56201171875, 1786.8704833984375, 681.38427734375, -4272.115234375, 1172.148681640625, 1007.884765625, -3891.708984375, 2446.95166015625, 357.1210632324219, -4785.37109375, 1585.70361328125, 767.9155883789062, -4067.8017578125, 1070.55908203125, 1067.819091796875, -3852.0322265625], [-514.5032958984375, -747.572998046875, 207.85574340820312, -455.58856201171875, -825.0927734375, 313.6230773925781, -351.544189453125, -911.10693359375, 425.6429443359375, -108.59339904785156, -936.0865478515625, 426.9592590332031, 118.3436508178711, -931.5426635742188, 386.6730651855469, -343.91192626953125, -970.174560546875, 511.7962951660156, -34.49176025390625, -918.9482421875, 390.5368957519531, 154.62054443359375, -934.0806884765625, 385.09423828125], [-823.1690673828125, 333.1361083984375, 2109.3330078125, -796.3491821289062, 346.48193359375, 2133.283935546875, -769.889404296875, 344.026123046875, 2155.703125, -800.7125244140625, 261.3083801269531, 2122.615234375, -856.8798828125, 179.65701293945312, 2068.1357421875, -751.2605590820312, 374.4558410644531, 2174.21044921875, -818.8978271484375, 222.29978942871094, 2103.955322265625, -864.545654296875, 168.33837890625, 2060.54931640625], [346.6699523925781, 98.30096435546875, -432.7717590332031, 247.15670776367188, -91.45613098144531, -454.1124572753906, 129.2275390625, -323.2378234863281, -482.5701904296875, 107.23109436035156, -490.7376708984375, -547.4620361328125, 161.73040771484375, -578.154541015625, -627.9605102539062, 74.27259826660156, -443.5388488769531, -501.51141357421875, 124.55989074707031, -492.6160888671875, -560.5853271484375, 167.03875732421875, -598.590087890625, -641.5620727539062], [65.96501922607422, 448.49114990234375, 2416.727783203125, 211.58828735351562, 1085.3310546875, 2273.178955078125, 292.802734375, 1796.80859375, 2127.330322265625, -300.697998046875, 2028.8240966796875, 2189.408935546875, -1087.9471435546875, 2016.1676025390625, 2331.367919921875, 442.65313720703125, 2275.3662109375, 2012.09912109375, -556.4387817382812, 1899.0238037109375, 2258.8115234375, -1203.427734375, 2040.495849609375, 2347.333740234375], [1130.3822021484375, 234.00994873046875, -1870.9171142578125, 1233.2635498046875, 889.7573852539062, -2074.008544921875, 1300.567138671875, 1716.247314453125, -2265.7431640625, 949.4151611328125, 2418.34912109375, -2013.42236328125, 470.02728271484375, 2834.032958984375, -1587.77685546875, 1398.96240234375, 2104.542236328125, -2423.75537109375, 793.6520385742188, 2475.12060546875, -1863.318603515625, 400.10284423828125, 2921.404296875, -1529.673095703125], [-1461.27587890625, 145.0947265625, -216.90463256835938, -987.1535034179688, 401.1255187988281, 199.98678588867188, -368.7537841796875, 641.52099609375, 638.7718505859375, 114.67700958251953, 504.27032470703125, 607.6145629882812, 281.86114501953125, 285.67877197265625, 400.11297607421875, -148.19007873535156, 886.4423828125, 977.8165283203125, 170.72689819335938, 357.0985412597656, 453.14715576171875, 321.284423828125, 264.4257507324219, 386.2295227050781], [-190.2382354736328, -1401.71044921875, 1977.0242919921875, -256.7562255859375, -1391.0750732421875, 1895.4429931640625, -347.7254638671875, -1361.9765625, 1812.005615234375, -440.0174865722656, -1272.0386962890625, 1842.485595703125, -491.02520751953125, -1192.36328125, 1916.0059814453125, -376.17059326171875, -1373.7535400390625, 1746.6226806640625, -456.9574279785156, -1238.5955810546875, 1880.0927734375, -500.8367919921875, -1180.390380859375, 1923.9947509765625], [753.796142578125, 1017.337158203125, 186.40982055664062, 842.3726806640625, 1463.7052001953125, 69.29180145263672, 872.3407592773438, 1951.8031005859375, -52.20763397216797, 383.360107421875, 2061.623779296875, -32.026973724365234, -239.48216247558594, 2003.7156982421875, 41.96607971191406, 976.9156494140625, 2299.423583984375, -146.7969512939453, 180.9268035888672, 1948.76953125, 14.924551010131836, -331.546142578125, 2013.7569580078125, 48.3221435546875], [-510.44097900390625, -928.7955932617188, 2044.8779296875, -521.8370361328125, -870.619140625, 2003.298583984375, -538.5775146484375, -783.8364868164062, 1963.5582275390625, -559.8790283203125, -653.0064697265625, 2012.4283447265625, -575.1312255859375, -552.439697265625, 2095.853759765625, -542.5286254882812, -765.31201171875, 1930.8299560546875, -564.982666015625, -619.5342407226562, 2042.2333984375, -577.852294921875, -535.4371948242188, 2107.218505859375], [-674.5880737304688, 1475.998779296875, 440.5407409667969, -620.7828369140625, 1474.09619140625, 501.4438171386719, -553.10205078125, 1457.3631591796875, 563.4449462890625, -493.94317626953125, 1383.862060546875, 537.8126220703125, -468.908447265625, 1316.4097900390625, 479.0992736816406, -529.3889770507812, 1472.59326171875, 612.2047119140625, -485.5710144042969, 1354.2314453125, 508.86419677734375, -463.5250244140625, 1306.5401611328125, 472.47039794921875], [437.6327209472656, 849.2623901367188, -2045.99365234375, 453.1221008300781, 824.9706420898438, -2015.5390625, 479.6908264160156, 792.0642700195312, -1984.09326171875, 539.4625854492188, 768.6134643554688, -1990.3104248046875, 594.5152587890625, 756.2403564453125, -2010.9293212890625, 482.2167663574219, 775.8993530273438, -1959.5458984375, 557.4098510742188, 768.199951171875, -2002.9112548828125, 603.2807006835938, 753.310791015625, -2012.85791015625], [110.26536560058594, 1032.1884765625, -1096.450439453125, 138.3753204345703, 997.005859375, -1045.5848388671875, 175.24050903320312, 936.9816284179688, -998.7120361328125, 204.44483947753906, 820.1156616210938, -1041.9951171875, 215.2108917236328, 724.3865966796875, -1120.7042236328125, 188.01722717285156, 934.3328857421875, -959.5430908203125, 208.07948303222656, 784.354736328125, -1072.6451416015625, 217.6773681640625, 708.99853515625, -1130.892822265625], [-423.7960510253906, 783.1795654296875, 1083.5283203125, -519.2896728515625, 669.1974487304688, 1029.3048095703125, -633.64306640625, 545.8790283203125, 971.5559692382812, -663.0044555664062, 526.147705078125, 962.525634765625, -618.103515625, 548.6947021484375, 971.99560546875, -687.2809448242188, 455.24212646484375, 927.0488891601562, -648.6302490234375, 558.4838256835938, 978.5717163085938, -614.1117553710938, 547.2403564453125, 970.987060546875], [631.5860595703125, 511.85784912109375, -1294.315673828125, 641.1798706054688, 701.0969848632812, -1375.6163330078125, 630.6431884765625, 938.9995727539062, -1455.5250244140625, 484.14654541015625, 1137.1871337890625, -1385.5860595703125, 311.0777587890625, 1254.85888671875, -1258.1348876953125, 652.3213500976562, 1049.742431640625, -1519.475830078125, 427.8609313964844, 1152.8916015625, -1335.5008544921875, 285.0329895019531, 1279.637451171875, -1241.7083740234375], [104.96953582763672, 603.5740356445312, -203.51844787597656, 63.9156494140625, 606.286865234375, -251.9221954345703, 6.9796295166015625, 616.64013671875, -300.91424560546875, -56.444664001464844, 656.025634765625, -290.14410400390625, -94.96385192871094, 691.4069213867188, -254.20997619628906, -9.95184326171875, 610.0810546875, -341.5115661621094, -69.0753173828125, 671.2282104492188, -269.31195068359375, -102.0415267944336, 696.626953125, -250.689697265625], [-312.18804931640625, -2.437408447265625, 1051.6412353515625, -340.2473449707031, -32.16867446899414, 1033.292724609375, -377.5128173828125, -67.24961853027344, 1013.4317016601562, -404.8799743652344, -87.200439453125, 1004.4537353515625, -412.1642150878906, -94.95145416259766, 999.7057495117188, -390.8898620605469, -87.57263946533203, 998.158203125, -407.1918029785156, -84.82406616210938, 1008.0360717773438, -414.17340087890625, -97.33881378173828, 998.0610961914062], [386.16400146484375, 401.2627258300781, -2307.65234375, 436.4845275878906, 483.86077880859375, -2289.881103515625, 515.5701293945312, 613.0751342773438, -2263.47705078125, 655.8822021484375, 829.6673583984375, -2173.987060546875, 773.9803466796875, 1002.0179443359375, -2059.041748046875, 529.3998413085938, 632.1099853515625, -2246.300537109375, 694.5054321289062, 890.5825805664062, -2152.125, 793.4241943359375, 1030.377197265625, -2040.160400390625], [-227.39450073242188, 687.216064453125, -368.18670654296875, -200.63143920898438, 747.4900512695312, -366.9706115722656, -158.70352172851562, 840.5217895507812, -359.8381042480469, -83.87037658691406, 993.2137451171875, -298.95941162109375, -20.478675842285156, 1112.976806640625, -215.11941528320312, -151.59947204589844, 856.185546875, -357.188720703125, -63.068668365478516, 1034.7117919921875, -279.76922607421875, -10.032943725585938, 1132.8177490234375, -201.80886840820312], [-213.32305908203125, 214.6761474609375, 110.41940307617188, -171.9209747314453, 186.3775177001953, 171.77476501464844, -115.87882995605469, 135.1932830810547, 232.90304565429688, -63.16347885131836, 26.744789123535156, 193.84971618652344, -36.12268829345703, -63.648292541503906, 116.2485122680664, -97.59215545654297, 136.305908203125, 281.6817626953125, -54.18621826171875, -7.980865478515625, 160.3358917236328, -30.812458038330078, -77.94974517822266, 106.7185287475586], [278.49151611328125, 188.72889709472656, -1407.03271484375, 259.25640869140625, 86.15838623046875, -1378.7425537109375, 253.67355346679688, -26.5032958984375, -1349.5386962890625, 365.1448974609375, -56.62255096435547, -1355.85302734375, 506.3682861328125, -47.460330963134766, -1375.749755859375, 230.4210205078125, -105.17853546142578, -1326.6778564453125, 411.0296630859375, -32.513431549072266, -1367.6956787109375, 527.2122802734375, -50.289337158203125, -1377.677978515625], [32.26325225830078, -39.00209426879883, -497.42010498046875, 36.971092224121094, -40.181976318359375, -491.38970947265625, 52.91930389404297, -26.804622650146484, -481.82830810546875, 123.20381164550781, 46.4407958984375, -451.1211242675781, 198.8048553466797, 114.80158233642578, -410.9898986816406, 47.979496002197266, -44.51841735839844, -475.806640625, 147.8526153564453, 77.07855987548828, -443.4061279296875, 210.4445037841797, 124.62828063964844, -404.3592224121094], [-642.4295043945312, -666.60498046875, 733.692626953125, -537.0095825195312, -598.3089599609375, 820.712646484375, -389.7435607910156, -509.74176025390625, 916.37646484375, -210.1949462890625, -423.9720458984375, 957.0701904296875, -91.66693115234375, -368.8758850097656, 978.31298828125, -346.69866943359375, -472.4391784667969, 988.3955078125, -171.13497924804688, -412.8411865234375, 939.7363891601562, -70.61790466308594, -358.07464599609375, 985.573974609375], [-416.4496154785156, 942.4177856445312, -1430.944091796875, -356.8702392578125, 979.5235595703125, -1380.5452880859375, -244.72454833984375, 1074.249267578125, -1316.4521484375, 46.402252197265625, 1358.5777587890625, -1194.9183349609375, 327.38421630859375, 1608.7685546875, -1048.8621826171875, -242.0858154296875, 1042.0723876953125, -1271.8721923828125, 138.02713012695312, 1462.8492431640625, -1174.258056640625, 371.790283203125, 1646.6795654296875, -1023.6524658203125], [-244.85394287109375, 365.18017578125, -346.55841064453125, -214.88064575195312, 383.80755615234375, -321.2827453613281, -163.02786254882812, 424.198974609375, -290.90093994140625, -46.64221954345703, 529.4295043945312, -245.2622833251953, 60.84718322753906, 620.2701416015625, -193.215576171875, -158.4632568359375, 415.7972717285156, -267.2853088378906, -11.521841049194336, 566.193603515625, -239.6551055908203, 78.08848571777344, 634.2034301757812, -183.84771728515625], [445.15521240234375, 134.20614624023438, -1197.814453125, 466.90155029296875, 89.2190933227539, -1149.6318359375, 494.3580322265625, 8.912089347839355, -1105.2938232421875, 488.5794677734375, -157.04051208496094, -1168.668701171875, 465.1318054199219, -294.9970703125, -1274.59814453125, 506.4949035644531, 9.413955688476562, -1067.809814453125, 480.8271789550781, -209.70420837402344, -1205.2674560546875, 462.3033752441406, -316.8344421386719, -1289.1505126953125], [-271.54541015625, 341.82318115234375, 563.8502197265625, -309.5450744628906, 18.574657440185547, 678.1028442382812, -342.73980712890625, -417.6590270996094, 781.8540649414062, -270.2584228515625, -924.5400390625, 591.5429077148438, -157.7357940673828, -1278.80810546875, 286.62518310546875, -372.7908935546875, -572.6333618164062, 869.1972045898438, -233.76907348632812, -1019.5905151367188, 492.2269287109375, -141.87803649902344, -1343.301513671875, 243.58139038085938], [261.9757995605469, -285.4258728027344, 81.16020202636719, 200.74856567382812, -420.97491455078125, 77.39762115478516, 121.55876159667969, -602.2374877929688, 67.38971710205078, 62.722129821777344, -804.0294799804688, -12.872678756713867, 44.817535400390625, -942.2294921875, -120.36992645263672, 92.91934967041016, -669.6259155273438, 61.155052185058594, 56.60283279418945, -839.0853271484375, -36.898292541503906, 40.28290939331055, -967.9288940429688, -137.47740173339844], [544.4826049804688, -432.34478759765625, 791.8165893554688, 404.5831298828125, -522.8914794921875, 675.9583740234375, 204.78363037109375, -646.3431396484375, 547.156005859375, -57.44710159301758, -791.0477905273438, 480.4735412597656, -244.1294708251953, -892.7249145507812, 434.8334045410156, 152.56008911132812, -688.77099609375, 451.2449645996094, -119.73540496826172, -818.6322631835938, 499.6563415527344, -276.252685546875, -911.2255859375, 422.4229736328125], [-565.0363159179688, -912.9996948242188, 455.625244140625, -528.925537109375, -1081.083984375, 579.51904296875, -448.6866455078125, -1284.0238037109375, 706.569580078125, -189.683349609375, -1421.25830078125, 664.93115234375, 73.76152038574219, -1490.763671875, 559.5689086914062, -456.0162658691406, -1392.85888671875, 805.9899291992188, -103.85590362548828, -1420.383056640625, 609.1841430664062, 114.86953735351562, -1507.4271240234375, 548.5191650390625], [-1114.601318359375, -982.5847778320312, 966.2855224609375, -899.6243896484375, -859.5211181640625, 1152.45556640625, -602.7705078125, -712.5780029296875, 1353.567626953125, -274.5411376953125, -621.5083618164062, 1403.9222412109375, -75.53761291503906, -581.2333984375, 1396.621826171875, -514.768310546875, -630.476318359375, 1506.49560546875, -208.98809814453125, -627.6461791992188, 1353.5816650390625, -38.95710754394531, -570.298095703125, 1404.0906982421875], [1240.762939453125, -300.1993408203125, 441.6309814453125, 1004.7116088867188, -384.3121643066406, 212.36233520507812, 659.8482666015625, -503.38885498046875, -37.36748123168945, 166.9684295654297, -660.0120239257812, -118.8758773803711, -201.91867065429688, -775.0550537109375, -139.8928985595703, 577.376220703125, -537.7479858398438, -226.07102966308594, 46.19757843017578, -694.8186645507812, -65.07063293457031, -264.71075439453125, -795.2281494140625, -153.4654541015625], [49.54972457885742, -1461.86962890625, 316.556396484375, 79.57156372070312, -1520.3343505859375, 379.5853271484375, 123.97781372070312, -1606.3048095703125, 442.23187255859375, 189.7595672607422, -1732.6453857421875, 396.3989562988281, 240.0416717529297, -1829.9608154296875, 309.31475830078125, 134.3393096923828, -1626.248291015625, 491.97216796875, 206.2325439453125, -1764.48095703125, 360.3724670410156, 248.502197265625, -1846.2694091796875, 298.49383544921875], [-774.4547119140625, -706.8670654296875, 788.143310546875, -597.49853515625, -567.2667236328125, 922.6796264648438, -363.9195861816406, -408.033203125, 1067.8450927734375, -166.68492126464844, -341.8822326660156, 1102.192138671875, -85.18389892578125, -330.6162109375, 1095.005859375, -283.49481201171875, -306.45147705078125, 1178.254638671875, -139.5137939453125, -364.14825439453125, 1066.307373046875, -67.63070678710938, -323.21453857421875, 1100.112548828125], [628.04638671875, 126.22027587890625, -747.930419921875, 585.5687255859375, 137.60455322265625, -802.2560424804688, 515.95263671875, 142.94802856445312, -861.1509399414062, 377.95111083984375, 109.73055267333984, -880.0518798828125, 255.14280700683594, 75.03303527832031, -884.3160400390625, 506.60272216796875, 160.10726928710938, -906.0526733398438, 338.14306640625, 92.06632232666016, -867.1751098632812, 235.33859252929688, 70.36962127685547, -887.3864135742188], [594.038330078125, -963.3941040039062, 1025.6171875, 533.278076171875, -828.0958862304688, 889.4183959960938, 414.380126953125, -676.7735595703125, 746.3033447265625, 87.75150299072266, -626.7825317382812, 750.5737915039062, -232.42572021484375, -629.6806640625, 810.4005126953125, 415.2886657714844, -575.0729370117188, 635.5842895507812, -16.62529754638672, -654.1697998046875, 799.19580078125, -282.9647216796875, -624.482421875, 813.847412109375], [283.7748718261719, -327.9103088378906, 781.9793090820312, 197.17262268066406, -349.12152099609375, 693.0264282226562, 68.7482681274414, -381.1769104003906, 596.6279907226562, -122.86705017089844, -430.913818359375, 569.5885620117188, -269.9466247558594, -469.3988952636719, 566.6973266601562, 39.79407501220703, -387.5388488769531, 523.4852294921875, -171.00631713867188, -443.9181823730469, 591.8936157226562, -294.8807067871094, -475.9096984863281, 562.3937377929688], [882.6744384765625, 101.21011352539062, -749.0006103515625, 808.1787719726562, 148.92752075195312, -857.7576904296875, 685.9644775390625, 198.49615478515625, -973.5213623046875, 439.8320617675781, 196.85003662109375, -985.0919799804688, 222.11399841308594, 178.36216735839844, -957.8956298828125, 669.8077392578125, 238.82144165039062, -1062.43896484375, 370.2855529785156, 179.29815673828125, -951.0679321289062, 186.86642456054688, 177.55657958984375, -958.41064453125], [946.593505859375, -1404.269287109375, 538.8134155273438, 883.2330932617188, -1231.9610595703125, 381.36981201171875, 756.536376953125, -1032.3148193359375, 217.59622192382812, 397.989501953125, -935.4306640625, 238.51724243164062, 43.96611022949219, -906.691162109375, 329.63836669921875, 759.547119140625, -910.6421508789062, 89.9824447631836, 282.64617919921875, -954.8421020507812, 299.78656005859375, -11.867462158203125, -895.4810791015625, 337.1368103027344], [96.26698303222656, -296.35516357421875, 883.6289672851562, 51.884708404541016, -253.6927947998047, 811.686767578125, -21.975433349609375, -204.3931884765625, 736.0653686523438, -174.06906127929688, -181.1498565673828, 737.8250122070312, -310.1748352050781, -174.86045837402344, 769.4421997070312, -30.940898895263672, -174.0601348876953, 677.625732421875, -218.49417114257812, -186.6951904296875, 765.1023559570312, -332.2368469238281, -172.2159423828125, 771.2731323242188], [-659.036376953125, -97.22097778320312, -2157.816650390625, -350.4263000488281, 54.12113952636719, -1878.552734375, 85.29443359375, 246.05441284179688, -1574.89990234375, 631.8782348632812, 415.2492980957031, -1486.5552978515625, 1000.0796508789062, 518.2666015625, -1475.56396484375, 204.03460693359375, 333.8305969238281, -1345.703369140625, 752.133056640625, 431.6226806640625, -1555.471923828125, 1065.2022705078125, 539.2545776367188, -1461.2738037109375], [627.9385375976562, 461.968505859375, 1744.1925048828125, 465.72711181640625, 754.423095703125, 1414.4525146484375, 189.21910095214844, 1125.0732421875, 1075.544189453125, -408.3315734863281, 1455.3480224609375, 1174.8062744140625, -953.3250732421875, 1654.955322265625, 1440.612548828125, 161.08140563964844, 1294.35009765625, 810.4767456054688, -586.2445068359375, 1486.6005859375, 1320.231201171875, -1040.99560546875, 1695.9344482421875, 1467.7958984375], [1731.4600830078125, 554.356689453125, 413.5389099121094, 1239.2886962890625, 227.97840881347656, 8.895685195922852, 570.1441650390625, -155.9652099609375, -428.49139404296875, -109.49116516113281, -370.16656494140625, -539.0400390625, -483.77777099609375, -451.6992492675781, -533.2940673828125, 360.7359619140625, -379.7737731933594, -760.784423828125, -233.01641845703125, -342.7460632324219, -435.31646728515625, -555.1297607421875, -477.126953125, -550.3912963867188], [-1534.5867919921875, 1157.4539794921875, 1914.7540283203125, -1232.66845703125, 1554.2935791015625, 2066.16748046875, -871.107421875, 1999.6474609375, 2232.14892578125, -776.1655883789062, 2151.904052734375, 2294.25, -911.0289916992188, 2151.41943359375, 2319.607421875, -707.0556640625, 2296.34130859375, 2356.88330078125, -819.3450927734375, 2074.44140625, 2261.258544921875, -922.8165283203125, 2167.58544921875, 2330.38818359375], [-305.17608642578125, -3314.4130859375, 4637.96142578125, -501.68829345703125, -3092.880859375, 4303.90478515625, -781.8338623046875, -2748.389892578125, 3969.442626953125, -1139.694580078125, -2175.810302734375, 4172.017578125, -1386.58984375, -1725.227294921875, 4580.95556640625, -855.9724731445312, -2693.75341796875, 3703.864013671875, -1220.6368408203125, -2018.8233642578125, 4351.60546875, -1429.90576171875, -1651.000732421875, 4630.4892578125], [1378.459228515625, -4178.94677734375, 753.5306396484375, 1235.6015625, -4026.26513671875, 514.46728515625, 1015.3092651367188, -3814.751708984375, 269.623291015625, 646.4166870117188, -3554.554443359375, 353.87615966796875, 343.7983703613281, -3367.21142578125, 561.1004028320312, 973.4970092773438, -3746.740234375, 77.85284423828125, 547.4161376953125, -3500.85107421875, 461.8061828613281, 293.7248229980469, -3334.1455078125, 583.1901245117188], [-123.15228271484375, 296.31585693359375, -74.6101303100586, -123.29710388183594, 309.6800842285156, -81.34597778320312, -119.14669036865234, 336.9747619628906, -85.95687103271484, -89.18646240234375, 404.16900634765625, -58.978275299072266, -54.52602767944336, 461.62408447265625, -19.46883773803711, -122.40946960449219, 332.7376708984375, -90.65019226074219, -78.2135009765625, 427.1661071777344, -48.198001861572266, -50.41291809082031, 470.58294677734375, -13.517005920410156], [-382.9193420410156, -488.54937744140625, 1099.169677734375, -421.38226318359375, -474.20489501953125, 1048.0565185546875, -463.2239990234375, -427.8995666503906, 999.6346435546875, -446.22845458984375, -269.2272033691406, 1060.992919921875, -396.32305908203125, -126.47315979003906, 1164.9798583984375, -487.2900695800781, -452.1146545410156, 959.8521728515625, -430.12261962890625, -208.85125732421875, 1097.975341796875, -389.8847961425781, -106.29585266113281, 1179.1063232421875], [-162.6298828125, -463.3385314941406, 351.5160827636719, -155.77830505371094, -456.0689697265625, 355.7345275878906, -141.8553924560547, -438.5754699707031, 361.98687744140625, -100.33357238769531, -389.010498046875, 383.00701904296875, -58.97705841064453, -345.52069091796875, 410.58514404296875, -142.4652099609375, -443.872802734375, 366.1116943359375, -86.85015869140625, -371.02862548828125, 387.95404052734375, -52.42078399658203, -338.9425048828125, 413.9300842285156], [84.41468048095703, 56.43766784667969, -229.30384826660156, 25.235883712768555, -39.21744155883789, -250.22705078125, -39.98133087158203, -143.2188720703125, -273.0698547363281, -19.9636287689209, -163.19076538085938, -279.7455749511719, 50.697940826416016, -147.6817169189453, -280.673828125, -76.27108001708984, -218.65390014648438, -290.1650695800781, 2.7573494911193848, -137.65335083007812, -274.5651550292969, 59.546382904052734, -149.24722290039062, -281.7633972167969], [-227.78794860839844, 1021.69921875, -1077.1414794921875, -185.92054748535156, 908.64404296875, -973.5900268554688, -109.60812377929688, 765.5380249023438, -867.9288330078125, 77.6032943725586, 640.0750732421875, -907.3483276367188, 255.42002868652344, 565.1751708984375, -1002.4109497070312, -106.117919921875, 699.70556640625, -784.906982421875, 135.57559204101562, 628.73828125, -955.7758178710938, 283.7689514160156, 549.5225219726562, -1012.7417602539062], [-862.5755615234375, 1162.736328125, 97.89102172851562, -793.9892578125, 1033.5426025390625, 239.96331787109375, -676.251708984375, 869.994873046875, 385.8719177246094, -417.1986999511719, 727.0805053710938, 342.5823059082031, -179.43731689453125, 640.6619262695312, 228.44979858398438, -665.2250366210938, 794.720703125, 500.1842041015625, -339.5587463378906, 713.8411254882812, 280.08245849609375, -141.21717834472656, 622.9511108398438, 216.42669677734375], [1467.6925048828125, -961.609375, -1935.7926025390625, 1159.0355224609375, -1303.7161865234375, -2121.61669921875, 789.2072143554688, -1665.477294921875, -2319.4189453125, 690.8584594726562, -1684.4959716796875, -2330.819091796875, 828.8515014648438, -1580.3751220703125, -2273.2392578125, 621.84912109375, -1947.0220947265625, -2470.624267578125, 734.6182861328125, -1571.572509765625, -2269.891357421875, 839.3528442382812, -1579.0445556640625, -2272.457763671875], [-932.5391235351562, 3802.61474609375, -4567.2490234375, -572.1127319335938, 3622.403076171875, -4065.267822265625, -42.01416015625, 3351.45947265625, -3546.72607421875, 723.6546020507812, 2932.411376953125, -3672.350341796875, 1300.04296875, 2611.19189453125, -4042.8701171875, 81.83651733398438, 3296.26025390625, -3142.2900390625, 912.3974609375, 2824.446533203125, -3886.093505859375, 1398.32080078125, 2555.9521484375, -4078.74560546875], [-2324.54833984375, 4837.73046875, -555.9518432617188, -2118.496826171875, 4542.826171875, -174.71507263183594, -1778.0767822265625, 4166.24951171875, 218.5142059326172, -1091.418701171875, 3824.0087890625, 117.0065689086914, -480.4029541015625, 3611.419189453125, -168.08404541015625, -1734.820556640625, 3998.136474609375, 525.5198974609375, -891.7727661132812, 3786.864013671875, -45.450477600097656, -381.46649169921875, 3568.9609375, -197.928955078125], [-911.807373046875, -88.30380249023438, 1050.666259765625, -720.0411987304688, 88.86317443847656, 1183.611572265625, -477.36090087890625, 282.84246826171875, 1326.031494140625, -330.88763427734375, 325.81982421875, 1348.9188232421875, -319.4315185546875, 302.2681884765625, 1327.7586669921875, -382.64935302734375, 420.92572021484375, 1434.92822265625, -326.2625732421875, 280.7962951660156, 1310.0924072265625, -309.8441162109375, 306.1517333984375, 1330.3189697265625], [259.1495361328125, -209.1807861328125, -413.3000183105469, 253.21041870117188, -296.1976318359375, -377.3099670410156, 244.79139709472656, -424.9085998535156, -346.23486328125, 233.07095336914062, -613.093994140625, -418.42462158203125, 224.49801635742188, -757.0198364257812, -531.68701171875, 242.36521911621094, -454.4785461425781, -318.9879455566406, 230.243896484375, -659.8059692382812, -453.71844482421875, 223.24510192871094, -779.406982421875, -547.902587890625], [125.91777038574219, -781.0497436523438, 48.63116455078125, 137.99508666992188, -809.6134033203125, 76.39366912841797, 152.64149475097656, -856.9562377929688, 102.55128479003906, 158.48916625976562, -944.885498046875, 69.46727752685547, 155.43588256835938, -1016.0348510742188, 12.291183471679688, 158.86566162109375, -860.7489624023438, 124.24607849121094, 157.53103637695312, -970.903076171875, 49.2542610168457, 155.41403198242188, -1027.5411376953125, 6.6239166259765625]], "rank_": 24, "singular_": [5.031554698944092, 4.301158428192139, 3.221682548522949, 2.014481544494629, 1.7670339345932007, 1.3784947395324707, 1.1822673082351685, 1.0149757862091064, 0.943482518196106, 0.9396595358848572, 0.9031011462211609, 0.8349320292472839, 0.728114664554596, 0.5928734540939331, 0.5599141120910645, 0.47173258662223816, 0.33652228116989136, 0.2708498537540436, 0.00010987171117449179, 5.0148661102866754e-05, 3.761497282539494e-05, 2.7580797905102372e-05, 9.213736120727845e-06, 6.492181455541868e-06], "intercept_": [161533.71875, 113195.0390625, 36355.296875, 29783.12109375, -48540.5859375, 24925.072265625, -128593.2109375, -48905.953125, -20975.0390625, 4302.6630859375, -88561.734375, -17053.916015625, -50750.81640625, 14692.6767578125, -6269.9482421875, -31554.00390625, -14260.916015625, -15472.640625, -15590.142578125, 19741.763671875, -21621.33203125, -4497.595703125, 31076.6875, 9746.640625, 542.3017578125, -7346.7841796875, -7291.9794921875, 23760.794921875, 16960.984375, 22716.509765625, 7312.5732421875, 41048.25390625, 2167.4267578125, 7500.9736328125, 46739.640625, -5671.87060546875, 6865.1640625, -6406.6884765625, -2686.607666015625, 3155.673095703125, 10886.271484375, -12497.185546875, 27610.927734375, -83183.1640625, 6199.1845703125, -110451.0078125, -8737.5966796875, 98020.6328125, -9192.8271484375, -6216.98388671875, 7763.09375, 12926.53125, 2138.812744140625, -21686.71484375, 98602.1796875, -9203.166015625, -104172.1484375, -33104.53515625, 25056.2265625, 27540.2265625]}, "yx_regressor": {"fit_intercept": true, "copy_X": true, "n_jobs": null, "positive": false, "n_features_in_": 60, "coef_": [[-1.346563696861267, -18.755048751831055, 277.68487548828125, -0.5483125448226929, -11.970787048339844, 264.4503479003906, 0.8285053968429565, -19.09722137451172, 265.10699462890625, -4.372348308563232, 14.258360862731934, 252.7807159423828, -4.485994815826416, 24.236007690429688, 240.04367065429688, -8.823047637939453, 54.827476501464844, 229.9479522705078, -9.466506004333496, 65.73112487792969, 218.3636016845703, -13.526119232177734, 90.54847717285156, 214.22755432128906, -13.09535026550293, 97.01298522949219, 202.42828369140625, -19.128427505493164, 113.33418273925781, 220.42933654785156, -24.8907413482666, 132.93955993652344, 232.97885131835938, -28.600488662719727, 144.23887634277344, 243.43368530273438, -35.03703689575195, 163.79408264160156, 259.98577880859375, -37.77558135986328, 171.6854248046875, 267.18414306640625, -39.8272705078125, 178.90745544433594, 271.57415771484375, -44.818084716796875, 193.004150390625, 286.51007080078125, -48.390785217285156, 202.3951873779297, 296.8411865234375, -51.636924743652344, 212.41978454589844, 306.0195007324219, -54.75664520263672, 221.06341552734375, 315.1434020996094, -52.99726104736328, 217.24374389648438, 308.2314758300781], [99.99903106689453, 293.0038146972656, 85.33879089355469, 82.29725646972656, 282.71197509765625, 98.21572875976562, 86.22988891601562, 301.43157958984375, 121.26387023925781, 48.455047607421875, 239.1803741455078, 86.90115356445312, 32.79544448852539, 216.20941162109375, 76.91897583007812, -5.162105560302734, 166.8869171142578, 62.23921585083008, -19.705371856689453, 141.10557556152344, 45.91232681274414, -48.30036163330078, 101.96283721923828, 31.992469787597656, -57.89775085449219, 82.1436538696289, 16.74647331237793, -72.156494140625, 75.81155395507812, 30.46829605102539, -87.18081665039062, 52.43695831298828, 18.688634872436523, -95.39533996582031, 43.45575714111328, 18.224029541015625, -108.47854614257812, 22.13653564453125, 6.854007720947266, -115.18891143798828, 16.620519638061523, 8.821258544921875, -117.65353393554688, 3.010303497314453, -8.461517333984375, -124.67774963378906, -12.486968994140625, -21.01461410522461, -128.88504028320312, -22.606292724609375, -30.16193389892578, -134.64239501953125, -34.87574768066406, -39.57347106933594, -138.57037353515625, -44.122459411621094, -47.73146057128906, -138.470458984375, -40.6612548828125, -42.580657958984375], [-5.692119121551514, 23.60369873046875, -646.0677490234375, -1.2715048789978027, 7.774447917938232, -613.0570678710938, -8.645261764526367, 24.29801368713379, -629.949951171875, 27.724647521972656, -51.42621612548828, -571.0206909179688, 34.28826141357422, -74.29377746582031, -525.9236450195312, 69.66374969482422, -143.6506805419922, -485.4156188964844, 77.63129425048828, -168.2827606201172, -439.9136962890625, 107.64250183105469, -224.8367919921875, -417.98468017578125, 109.74018096923828, -239.39788818359375, -372.65509033203125, 141.73306274414062, -276.3255615234375, -436.6426696777344, 173.14105224609375, -320.8963928222656, -467.6536560058594, 192.975830078125, -346.2086181640625, -499.0904541015625, 226.64712524414062, -390.61572265625, -542.4955444335938, 240.7652587890625, -408.51434326171875, -566.0931396484375, 250.83932495117188, -424.7906188964844, -568.5557250976562, 275.9718322753906, -457.0040283203125, -606.6927490234375, 292.4127197265625, -477.59814453125, -631.6397705078125, 309.969482421875, -501.0619812011719, -654.6135864257812, 324.8103332519531, -520.35498046875, -677.3439331054688, 316.8567810058594, -511.5494384765625, -659.1578979492188], [-114.9543228149414, -9.682716369628906, 24.97396469116211, -110.3891830444336, -4.912605285644531, 17.551036834716797, -109.79373931884766, -13.42275619506836, 15.588153839111328, -106.31533813476562, 14.560602188110352, 13.966255187988281, -102.66567993164062, 24.938125610351562, 9.476428985595703, -99.82007598876953, 47.322662353515625, 6.678192138671875, -96.93971252441406, 58.71205139160156, 3.2200355529785156, -95.22114562988281, 76.76129150390625, 2.794689178466797, -92.80070495605469, 85.54451751708984, -0.38195228576660156, -96.45159912109375, 88.3228759765625, 5.973722457885742, -99.62776947021484, 98.99655151367188, 12.723921775817871, -101.96099853515625, 102.86954498291016, 17.253244400024414, -106.51274108886719, 112.71499633789062, 25.341079711914062, -107.98320007324219, 115.10270690917969, 28.67855453491211, -109.75798034667969, 121.186279296875, 32.41196823120117, -114.03839874267578, 128.359619140625, 40.280887603759766, -116.86546325683594, 132.64862060546875, 45.42406463623047, -119.58430480957031, 138.43099975585938, 50.75210952758789, -122.17635345458984, 142.556640625, 55.55709457397461, -120.09031677246094, 140.92227172851562, 51.901519775390625], [-108.59007263183594, -273.529541015625, -284.5762634277344, -91.13832092285156, -268.2822570800781, -287.69580078125, -97.04134368896484, -280.7044677734375, -314.1666259765625, -51.429378509521484, -244.13470458984375, -265.2054138183594, -35.144779205322266, -229.32461547851562, -243.31520080566406, 10.327945709228516, -203.07093811035156, -218.25975036621094, 25.855724334716797, -186.21054077148438, -190.04364013671875, 61.35813903808594, -165.5833282470703, -171.0272979736328, 70.67388153076172, -151.60159301757812, -144.02464294433594, 93.3947982788086, -154.88125610351562, -174.64453125, 116.84063720703125, -145.0126953125, -172.09364318847656, 130.24911499023438, -143.13621520996094, -180.4980926513672, 152.63174438476562, -135.1247100830078, -181.5550537109375, 163.123779296875, -134.58340454101562, -190.04757690429688, 168.430908203125, -126.49848937988281, -174.46453857421875, 182.55905151367188, -120.48500061035156, -173.05706787109375, 191.44552612304688, -116.77561950683594, -171.47552490234375, 202.0128173828125, -111.55674743652344, -168.67481994628906, 210.28138732910156, -107.90524291992188, -167.4454345703125, 207.677734375, -108.91091918945312, -167.2636260986328], [-8.822555541992188, -0.7302255630493164, 34.540592193603516, -8.386526107788086, 0.4107193946838379, 32.56470489501953, -8.409210205078125, -0.883591890335083, 32.158878326416016, -8.105741500854492, 4.308751106262207, 31.90407943725586, -7.809096336364746, 5.928577423095703, 30.913162231445312, -7.458904266357422, 10.592077255249023, 29.385595321655273, -7.242827415466309, 12.334781646728516, 28.480077743530273, -6.981010437011719, 16.118059158325195, 28.099653244018555, -6.84012508392334, 17.21452522277832, 27.208072662353516, -7.184050559997559, 19.394325256347656, 29.07106590270996, -7.395725250244141, 22.272300720214844, 30.801069259643555, -7.661209583282471, 23.845441818237305, 31.94471549987793, -8.009333610534668, 26.685550689697266, 34.27106857299805, -8.136699676513672, 27.757160186767578, 34.98673629760742, -8.32230281829834, 28.870033264160156, 35.90562057495117, -8.667121887207031, 30.9832820892334, 38.043060302734375, -8.923059463500977, 32.180179595947266, 39.274436950683594, -9.209062576293945, 33.76900100708008, 40.72642517089844, -9.372913360595703, 35.00666427612305, 41.99427032470703, -9.187304496765137, 34.422882080078125, 40.975975036621094], [-56.786598205566406, 114.207275390625, 53.4478759765625, -53.02333068847656, 113.16902160644531, 57.023948669433594, -53.797271728515625, 111.4808349609375, 53.43602752685547, -45.69096374511719, 110.78802490234375, 63.52423095703125, -42.352394104003906, 112.14469909667969, 70.18712615966797, -33.81827926635742, 109.03268432617188, 76.5474624633789, -30.652387619018555, 110.70067596435547, 83.65447235107422, -24.9491024017334, 107.88678741455078, 87.49602508544922, -22.824323654174805, 110.48905181884766, 94.46734619140625, -19.487733840942383, 101.59904479980469, 85.02591705322266, -16.75303077697754, 96.5477066040039, 81.55525207519531, -14.90280532836914, 92.05205535888672, 77.45722198486328, -12.487369537353516, 86.3853759765625, 71.9495849609375, -10.915674209594727, 82.88467407226562, 68.88153076171875, -10.398197174072266, 82.82170104980469, 69.60305786132812, -9.08050537109375, 78.75443267822266, 65.10208129882812, -8.086902618408203, 76.03474426269531, 62.359371185302734, -7.079898834228516, 73.39654541015625, 59.756622314453125, -6.277748107910156, 70.939208984375, 57.15930938720703, -6.197925567626953, 72.32901000976562, 59.35798263549805], [-21.340442657470703, 101.5241928100586, 28.52810287475586, -15.381294250488281, 98.98096466064453, 35.872596740722656, -17.451231002807617, 97.9619369506836, 28.284311294555664, -1.5284295082092285, 91.6372299194336, 49.13919448852539, 4.081735610961914, 91.6106185913086, 62.86009979248047, 19.92702865600586, 82.86161804199219, 75.88206481933594, 25.317157745361328, 83.52418518066406, 90.70238494873047, 37.82190704345703, 74.93757629394531, 98.47657012939453, 40.91509246826172, 77.50996398925781, 112.84695434570312, 49.089542388916016, 63.772186279296875, 93.51386260986328, 57.54317092895508, 53.47938919067383, 86.39041900634766, 62.33820724487305, 46.13972473144531, 77.9515380859375, 70.37068176269531, 35.385101318359375, 67.1126480102539, 74.20059204101562, 29.4957275390625, 60.58356475830078, 76.11204528808594, 28.37224578857422, 62.14570617675781, 81.28071594238281, 20.701656341552734, 53.194358825683594, 84.5024642944336, 15.730079650878906, 47.41532897949219, 88.49073791503906, 10.615130424499512, 42.450584411621094, 91.32592010498047, 6.018547058105469, 37.07476043701172, 90.349853515625, 8.443374633789062, 41.45893859863281], [-44.44843292236328, 41.818843841552734, 65.37232208251953, -40.658790588378906, 43.18116760253906, 64.18478393554688, -41.782711029052734, 40.177398681640625, 58.715362548828125, -32.38758087158203, 49.316322326660156, 68.47339630126953, -28.892885208129883, 52.90767288208008, 72.53990173339844, -19.519393920898438, 59.836612701416016, 77.81896209716797, -16.2642765045166, 63.96036911010742, 83.21492004394531, -8.827244758605957, 69.3876953125, 86.73379516601562, -6.917458534240723, 72.6825942993164, 91.8666763305664, -2.5371294021606445, 72.36309814453125, 86.54570007324219, 2.049025297164917, 75.096923828125, 87.16045379638672, 4.693183898925781, 75.87327575683594, 85.93356323242188, 8.838897705078125, 78.19532012939453, 86.13121795654297, 10.955041885375977, 78.48653411865234, 84.67449188232422, 11.93743896484375, 80.52497100830078, 88.15365600585938, 14.530933380126953, 82.24665832519531, 88.93975830078125, 16.185941696166992, 83.39971923828125, 89.73638916015625, 18.188093185424805, 84.80320739746094, 90.57960510253906, 19.659751892089844, 85.84425354003906, 91.17701721191406, 19.26542854309082, 85.56063842773438, 90.97138977050781], [249.24986267089844, 107.54077911376953, -252.33447265625, 228.72900390625, 90.72477722167969, -227.85928344726562, 229.43849182128906, 120.48458862304688, -209.88140869140625, 201.29769897460938, 20.35131072998047, -224.94015502929688, 184.6993408203125, -16.458251953125, -219.73802185058594, 155.5662841796875, -97.05821228027344, -221.05491638183594, 141.30538940429688, -138.22299194335938, -222.1537322998047, 121.58746337890625, -202.5392303466797, -229.020263671875, 109.97520446777344, -233.95652770996094, -229.28829956054688, 110.36042785644531, -245.37982177734375, -237.0593719482422, 109.77061462402344, -284.08929443359375, -259.89520263671875, 110.23186492919922, -298.8630676269531, -271.2622985839844, 112.88076782226562, -334.850830078125, -297.2594299316406, 112.54985046386719, -343.9808349609375, -303.85699462890625, 115.50527954101562, -365.850830078125, -322.52880859375, 120.90249633789062, -391.66119384765625, -348.40826416015625, 125.09552001953125, -408.5858459472656, -366.47222900390625, 127.76990509033203, -428.72149658203125, -383.721923828125, 131.5735626220703, -443.97808837890625, -400.2581787109375, 126.95418548583984, -438.2608947753906, -388.72540283203125], [164.71713256835938, -330.9239807128906, 405.8114929199219, 159.19473266601562, -314.69354248046875, 372.05535888671875, 170.2377471923828, -335.21405029296875, 399.37677001953125, 118.05513000488281, -252.54075622558594, 318.938720703125, 109.10231018066406, -225.7216339111328, 263.3204650878906, 58.23109436035156, -153.24948120117188, 211.55194091796875, 47.98902130126953, -123.90065002441406, 153.06396484375, 3.0984573364257812, -65.07470703125, 123.58342742919922, 1.6226081848144531, -45.87922286987305, 65.56103515625, -45.716068267822266, -16.305482864379883, 144.22447204589844, -92.74225616455078, 27.041370391845703, 176.4799346923828, -122.22056579589844, 49.1524658203125, 212.8146514892578, -172.40591430664062, 90.3938980102539, 259.45733642578125, -193.3997802734375, 106.24850463867188, 287.33843994140625, -208.57073974609375, 124.45178985595703, 284.5301818847656, -246.39332580566406, 154.0642852783203, 324.6108093261719, -270.83056640625, 174.02015686035156, 350.74517822265625, -297.28192138671875, 196.48150634765625, 373.6571044921875, -319.62548828125, 214.22164916992188, 397.8349609375, -307.385986328125, 206.46092224121094, 378.4117431640625], [27.808834075927734, -252.2694854736328, 134.34408569335938, 26.303089141845703, -241.05340576171875, 111.734375, 30.549945831298828, -253.06317138671875, 120.01464080810547, 11.271195411682129, -198.79957580566406, 85.66558837890625, 8.341545104980469, -182.34033203125, 57.74919128417969, -10.36984920501709, -132.92459106445312, 33.40647506713867, -14.062353134155273, -115.05905151367188, 6.023685455322266, -30.501996994018555, -74.81793975830078, -6.463336944580078, -30.847333908081055, -64.15758514404297, -33.98855209350586, -49.15373992919922, -38.46408462524414, 5.639988899230957, -67.14289855957031, -6.9557976722717285, 27.360855102539062, -78.70454406738281, 10.832962036132812, 47.58928680419922, -97.89830017089844, 42.03901672363281, 76.54663848876953, -106.08702087402344, 54.672080993652344, 91.44436645507812, -112.05170440673828, 66.3470687866211, 95.40895080566406, -126.74252319335938, 88.93914031982422, 121.02452087402344, -136.3227996826172, 103.63578796386719, 138.2574005126953, -146.59930419921875, 120.27710723876953, 154.02134704589844, -155.27528381347656, 133.6676483154297, 169.57667541503906, -150.4540252685547, 127.55865478515625, 157.27569580078125], [-89.49858093261719, -43.5084342956543, 81.10025024414062, -86.40277099609375, -37.7198486328125, 70.91383361816406, -87.37320709228516, -43.49830627441406, 64.52701568603516, -79.63726806640625, -15.74495792388916, 68.63336944580078, -76.80901336669922, -7.615684509277344, 65.45231628417969, -69.04898834228516, 18.22686004638672, 64.90216064453125, -66.28467559814453, 26.52070426940918, 63.92176818847656, -60.223289489746094, 48.00587463378906, 65.85858154296875, -58.712894439697266, 52.91026306152344, 64.99837493896484, -54.92298126220703, 67.2823486328125, 69.6428451538086, -51.120330810546875, 84.33441162109375, 79.10662841796875, -48.69147491455078, 93.66155242919922, 84.46897888183594, -45.424163818359375, 111.05831909179688, 95.1722412109375, -43.472145080566406, 117.86063385009766, 98.60845947265625, -42.506935119628906, 123.6481704711914, 105.8302230834961, -40.004966735839844, 136.01571655273438, 116.61308288574219, -38.64430236816406, 143.84036254882812, 124.30172729492188, -37.15486145019531, 152.76077270507812, 131.19345092773438, -35.51962661743164, 160.039794921875, 138.3636474609375, -36.35459518432617, 156.6246337890625, 133.49082946777344], [-185.52273559570312, 266.13623046875, -126.29023742675781, -176.10397338867188, 259.75079345703125, -110.10038757324219, -180.09353637695312, 260.9083251953125, -123.6566162109375, -151.366943359375, 239.59866333007812, -84.179443359375, -142.1513671875, 236.28402709960938, -57.05183029174805, -113.58148956298828, 211.62701416015625, -31.657779693603516, -104.55914306640625, 208.99276733398438, -3.3048171997070312, -81.72349548339844, 187.8329315185547, 11.38037109375, -76.78688049316406, 189.58460998535156, 39.73958969116211, -60.41556930541992, 162.31564331054688, 1.3084526062011719, -43.72346496582031, 140.3391876220703, -14.137739181518555, -33.566497802734375, 124.92831420898438, -31.67205810546875, -17.075904846191406, 102.10520935058594, -54.287139892578125, -9.833206176757812, 90.16358947753906, -67.73663330078125, -5.461952209472656, 85.89163970947266, -66.07889556884766, 5.619903564453125, 69.67613220214844, -85.42564392089844, 12.501178741455078, 59.08058166503906, -97.91199493408203, 20.938888549804688, 46.8299674987793, -108.87571716308594, 27.150081634521484, 37.63885498046875, -120.53089141845703, 24.59014892578125, 42.28985595703125, -111.17996978759766], [-25.042142868041992, 160.10662841796875, 122.51548767089844, -30.805362701416016, 158.53326416015625, 123.25093078613281, -29.325374603271484, 163.064453125, 130.63792419433594, -42.535667419433594, 150.8172607421875, 116.8851547241211, -47.71623229980469, 145.62588500976562, 110.57786560058594, -60.94091033935547, 137.04136657714844, 103.54388427734375, -65.73247528076172, 130.91661071777344, 95.47859954833984, -75.86463165283203, 124.404296875, 90.08846282958984, -78.9903793334961, 119.18115234375, 82.48944854736328, -84.5236587524414, 121.95112609863281, 91.23115539550781, -90.31999206542969, 119.54326629638672, 90.63782501220703, -93.46992492675781, 119.60975646972656, 92.95232391357422, -98.8641357421875, 118.1636734008789, 93.49491119384766, -101.36583709716797, 118.47340393066406, 95.9049072265625, -102.44989013671875, 115.69466400146484, 91.5555419921875, -105.49213409423828, 114.53469848632812, 91.6922607421875, -107.3524398803711, 113.60626220703125, 91.19279479980469, -109.80172729492188, 112.39463806152344, 90.21168518066406, -111.46578216552734, 111.66815185546875, 90.37327575683594, -111.17383575439453, 111.668701171875, 89.81715393066406], [49.456329345703125, 13.127985954284668, 237.03890991210938, 56.021263122558594, 16.144412994384766, 233.8221435546875, 59.99946975708008, 3.2308616638183594, 240.67263793945312, 51.73649597167969, 33.326515197753906, 224.55670166015625, 55.22325134277344, 47.8629150390625, 215.18582153320312, 47.89227294921875, 66.40992736816406, 205.67864990234375, 50.039920806884766, 83.59235382080078, 195.26345825195312, 41.19097900390625, 97.07086181640625, 189.20022583007812, 45.7855339050293, 113.0938949584961, 178.61279296875, 26.85311508178711, 97.67147064208984, 191.90879821777344, 9.08698844909668, 98.92681884765625, 195.01670837402344, -2.7559852600097656, 94.26084899902344, 200.6264190673828, -23.239887237548828, 93.03961181640625, 205.64697265625, -31.321853637695312, 88.69572448730469, 210.0937957763672, -38.33603286743164, 95.58102416992188, 207.61090087890625, -55.33177185058594, 94.64814758300781, 211.81997680664062, -66.74828338623047, 94.73818969726562, 214.55825805664062, -77.70442199707031, 95.05821228027344, 216.4205322265625, -88.31855010986328, 94.58413696289062, 219.20811462402344, -81.65819549560547, 95.9478759765625, 217.02474975585938], [-183.21051025390625, 438.09722900390625, -197.46405029296875, -184.62977600097656, 424.2778015136719, -171.327392578125, -190.2564697265625, 442.6900939941406, -181.32501220703125, -168.98635864257812, 370.9869689941406, -140.94044494628906, -167.822265625, 347.23773193359375, -108.398681640625, -147.23178100585938, 285.293212890625, -79.84323120117188, -145.05966186523438, 259.00958251953125, -47.92494583129883, -125.5939712524414, 209.548583984375, -33.44028854370117, -127.35710144042969, 191.83242797851562, -0.9593696594238281, -102.38990783691406, 168.57501220703125, -47.15610885620117, -77.97405242919922, 133.04586791992188, -71.80066680908203, -61.92179870605469, 114.98492431640625, -95.4022216796875, -35.04862976074219, 81.02519989013672, -129.38690185546875, -24.299179077148438, 68.27474975585938, -146.530029296875, -15.639663696289062, 52.69593048095703, -150.50723266601562, 5.611320495605469, 28.036300659179688, -180.6317138671875, 19.158653259277344, 11.795578002929688, -200.25271606445312, 33.903076171875, -7.137264251708984, -218.4622802734375, 46.368316650390625, -21.666587829589844, -236.62335205078125, 38.93208312988281, -15.3280029296875, -222.29563903808594], [-55.13953399658203, -26.371925354003906, 137.75228881835938, -47.20854949951172, -20.942462921142578, 130.1842498779297, -46.85688781738281, -32.34413146972656, 125.19114685058594, -38.41108322143555, 3.286320686340332, 128.6625213623047, -32.22733688354492, 17.13909149169922, 126.452880859375, -23.34435272216797, 44.617637634277344, 126.3043212890625, -18.165128707885742, 60.257694244384766, 125.82780456542969, -12.54604434967041, 81.86763000488281, 128.0443878173828, -8.1189603805542, 94.4951400756836, 127.49496459960938, -10.726827621459961, 94.40127563476562, 130.1352081298828, -12.811332702636719, 105.88352966308594, 137.2366943359375, -14.588397026062012, 109.21096801757812, 141.1613006591797, -18.353130340576172, 119.22465515136719, 149.177734375, -19.403488159179688, 120.97306060791016, 151.48422241210938, -21.223358154296875, 128.83731079101562, 157.0192108154297, -25.447174072265625, 136.1090087890625, 165.00439453125, -28.553295135498047, 141.01983642578125, 170.80203247070312, -30.81292724609375, 146.76173400878906, 176.04296875, -33.61564254760742, 151.25782775878906, 181.1365203857422, -31.189579010009766, 149.91629028320312, 177.565673828125], [136.6302032470703, -481.6674499511719, -757.3309326171875, 113.5028076171875, -485.3660888671875, -758.9109497070312, 107.63706970214844, -454.6939392089844, -762.9747924804688, 103.044189453125, -516.0122680664062, -756.7506713867188, 87.08464813232422, -549.2315673828125, -754.5302124023438, 80.5098648071289, -581.0178833007812, -751.766845703125, 67.90299987792969, -620.239501953125, -748.236083984375, 69.92262268066406, -642.2254638671875, -746.1639404296875, 55.981544494628906, -681.5171508789062, -742.9299926757812, 85.2131118774414, -629.1795654296875, -745.8675537109375, 112.57632446289062, -620.4111938476562, -744.0346069335938, 131.2845458984375, -600.857177734375, -745.572509765625, 166.145751953125, -585.4669799804688, -742.4109497070312, 178.5242919921875, -568.3863525390625, -744.0435791015625, 190.58673095703125, -582.7597045898438, -741.6163330078125, 221.0244140625, -571.6953125, -739.4006958007812, 241.77896118164062, -565.7318115234375, -738.930908203125, 260.3043212890625, -560.14111328125, -736.7113037109375, 279.6538391113281, -554.085693359375, -736.1400146484375, 266.3293151855469, -559.9329833984375, -736.9893798828125], [427.1279602050781, -872.4578857421875, 631.0225830078125, 411.325927734375, -840.9835205078125, 563.8213500976562, 424.63031005859375, -866.24072265625, 596.8975830078125, 349.8991394042969, -729.604248046875, 478.1197814941406, 331.82049560546875, -692.7164916992188, 387.1957092285156, 258.08642578125, -560.4979248046875, 305.9049072265625, 239.64552307128906, -522.1301879882812, 214.36700439453125, 177.2897186279297, -412.6641540527344, 171.2722930908203, 170.10279846191406, -394.6194152832031, 79.71556854248047, 114.25704956054688, -304.56341552734375, 208.58453369140625, 58.0035400390625, -210.87356567382812, 272.3085021972656, 23.321502685546875, -154.10739135742188, 335.96319580078125, -35.30352783203125, -59.230430603027344, 425.41192626953125, -59.9541015625, -16.851104736328125, 472.266357421875, -76.71080017089844, 11.399085998535156, 478.3016662597656, -119.28792572021484, 79.56961059570312, 556.6953735351562, -145.94313049316406, 124.05792236328125, 607.6680908203125, -176.71710205078125, 173.79409790039062, 654.0928955078125, -201.1894073486328, 213.6138916015625, 701.5660400390625, -188.614501953125, 194.3486328125, 664.1461181640625], [97.20243072509766, -363.3847961425781, 109.7986831665039, 93.36874389648438, -351.3536376953125, 84.88911437988281, 96.52824401855469, -360.5605163574219, 91.25349426269531, 78.23625183105469, -308.63623046875, 58.543190002441406, 73.81949615478516, -294.8551330566406, 30.220111846923828, 55.80207443237305, -244.2883758544922, 6.0819854736328125, 50.99527359008789, -229.75027465820312, -21.04251480102539, 36.052734375, -188.04513549804688, -32.77219772338867, 34.153533935546875, -181.52394104003906, -60.20039367675781, 20.483530044555664, -145.91249084472656, -19.930896759033203, 6.847620010375977, -109.69287872314453, 3.6274914741516113, -1.6899261474609375, -87.33442687988281, 24.735443115234375, -15.774574279785156, -50.600975036621094, 57.45280456542969, -21.914016723632812, -34.21074676513672, 72.70703125, -25.986522674560547, -23.202373504638672, 77.51921081542969, -36.310447692871094, 3.3778228759765625, 106.24337768554688, -42.79939270019531, 20.504623413085938, 124.90665435791016, -50.31299591064453, 39.78249740600586, 142.58145141601562, -56.195465087890625, 55.4385986328125, 159.69683837890625, -53.16911315917969, 47.853424072265625, 146.1808319091797], [-173.08206176757812, 318.5382995605469, 335.74951171875, -148.22181701660156, 319.7335205078125, 343.33526611328125, -147.27053833007812, 295.31640625, 333.8533630371094, -120.39747619628906, 338.2816162109375, 358.5511779785156, -101.03009033203125, 363.9355773925781, 374.2393493652344, -72.7972640991211, 382.0762634277344, 389.3795166015625, -56.24496078491211, 413.02838134765625, 406.27386474609375, -39.12454605102539, 424.3209533691406, 415.9121398925781, -24.652393341064453, 456.2538146972656, 432.393310546875, -32.7829704284668, 406.18426513671875, 410.25341796875, -39.39222717285156, 392.59539794921875, 402.8586730957031, -44.95707702636719, 372.4801940917969, 393.909423828125, -56.681396484375, 353.1728210449219, 381.8934326171875, -59.963409423828125, 335.9876708984375, 374.77545166015625, -65.62464904785156, 346.3172912597656, 377.43634033203125, -79.01486206054688, 332.4295654296875, 367.80865478515625, -88.50228881835938, 324.5178527832031, 362.24725341796875, -95.27960205078125, 316.6560974121094, 356.6217956542969, -104.54580688476562, 308.742431640625, 351.30072021484375, -96.3514404296875, 314.9873046875, 356.0400390625], [-193.21951293945312, 378.1176452636719, -542.2698974609375, -185.60733032226562, 358.2055358886719, -500.74249267578125, -196.29803466796875, 379.13824462890625, -526.5745849609375, -143.14453125, 284.84332275390625, -442.6777648925781, -132.73033142089844, 256.3846435546875, -381.4364318847656, -80.64973449707031, 170.11285400390625, -325.7269592285156, -69.5386962890625, 139.56906127929688, -262.68408203125, -24.00714111328125, 68.99970245361328, -232.15093994140625, -21.33169174194336, 50.98512268066406, -169.54183959960938, 23.878528594970703, 5.239765167236328, -256.2110595703125, 69.1759262084961, -50.489295959472656, -295.745849609375, 97.13955688476562, -81.44711303710938, -337.2893371582031, 145.25543212890625, -136.71640014648438, -393.512939453125, 165.29678344726562, -159.39088439941406, -424.60009765625, 179.440673828125, -179.3459014892578, -425.3700256347656, 215.23638916015625, -219.09646606445312, -474.2738342285156, 238.00082397460938, -245.32101440429688, -505.9276428222656, 263.2464904785156, -274.1679382324219, -534.5135498046875, 284.21185302734375, -297.81390380859375, -564.0426635742188, 272.8721923828125, -286.6587219238281, -540.5961303710938], [14.003872871398926, 417.1565856933594, 41.84409713745117, 8.529924392700195, 403.379150390625, 66.34947204589844, 7.811753273010254, 419.2406311035156, 72.07782745361328, 4.0810394287109375, 351.06231689453125, 80.98883056640625, 0.07012319564819336, 329.8166809082031, 97.5744400024414, -3.956385612487793, 268.7045593261719, 108.98006439208984, -7.282776355743408, 245.55120849609375, 122.03873443603516, -9.095612525939941, 195.85009765625, 124.3622817993164, -12.300414085388184, 181.43405151367188, 137.89537048339844, -8.210929870605469, 152.51931762695312, 114.05846405029297, -4.485884666442871, 114.67594146728516, 90.93672943115234, -1.6722259521484375, 94.09660339355469, 74.88040924072266, 3.2976760864257812, 56.83384704589844, 45.52711868286133, 5.071441650390625, 42.28802490234375, 34.99609375, 7.142177581787109, 27.64389419555664, 23.098876953125, 12.042984008789062, 0.738250732421875, -4.1502227783203125, 15.239265441894531, -16.8238525390625, -22.425704956054688, 18.466087341308594, -36.80246353149414, -39.44618606567383, 21.343358993530273, -52.604331970214844, -56.50726318359375, 18.939590454101562, -45.507293701171875, -43.52523422241211]], "rank_": 60, "singular_": [8.11600399017334, 6.730897426605225, 5.331594467163086, 3.240030288696289, 3.172715902328491, 2.4961936473846436, 2.1214547157287598, 1.9622889757156372, 1.9406827688217163, 1.854994297027588, 1.8216490745544434, 1.711348533630371, 1.5895633697509766, 1.5762560367584229, 1.4847564697265625, 1.3971525430679321, 1.2640349864959717, 1.0686533451080322, 1.0388555526733398, 0.943249523639679, 0.9028862714767456, 0.8310592770576477, 0.7745188474655151, 0.7596840262413025, 0.7230746746063232, 0.6330627202987671, 0.6221484541893005, 0.6042727828025818, 0.5037186741828918, 0.47283414006233215, 0.4236181676387787, 0.37549248337745667, 0.2811189591884613, 0.1807435005903244, 0.11226829886436462, 0.10386018455028534, 0.09721718728542328, 0.09540482610464096, 0.09405476599931717, 0.09188453108072281, 0.08708270639181137, 0.08380769938230515, 0.08233415335416794, 0.07761843502521515, 0.07332544773817062, 0.05301908403635025, 0.05232168361544609, 0.052204541862010956, 0.05117945745587349, 0.04925577715039253, 0.0446537546813488, 0.04196793958544731, 0.04102878272533417, 0.03789858520030975, 8.29144919407554e-05, 7.493355224141851e-05, 2.925298031186685e-05, 2.7503259843797423e-05, 1.4907827790011652e-05, 8.755871022003703e-06], "intercept_": [-29434.677734375, -6245.5361328125, 55975.12890625, 617.9105224609375, 25183.376953125, -3785.569091796875, -12602.4638671875, -14765.416015625, -12732.443359375, 29725.240234375, -12792.98828125, 3280.52197265625, -8251.0595703125, -3470.4755859375, -12945.1474609375, -24486.47265625, 1076.8505859375, -17035.673828125, 101523.890625, -16690.7421875, 7300.00390625, -57030.578125, 27743.830078125, -20014.27734375]}}, "fg_topology": {"serial": {"0": 78841, "1": 78842, "2": 78843, "3": 78844, "4": 78845, "5": 78846, "6": 78847, "7": 78848, "8": 78849, "9": 78850, "10": 78851, "11": 78852, "12": 78853, "13": 78854, "14": 78855, "15": 78856, "16": 78857, "17": 78858, "18": 78859, "19": 78860, "20": 78861, "21": 78862, "22": 78863, "23": 78864, "24": 78865, "25": 78866, "26": 78867, "27": 78868, "28": 78869, "29": 78870, "30": 78871, "31": 78872, "32": 78873, "33": 78874, "34": 78875, "35": 78876, "36": 78877, "37": 78878, "38": 78879, "39": 78880, "40": 78881, "41": 78882, "42": 78883, "43": 78884, "44": 78885, "45": 78886, "46": 78887, "47": 78888, "48": 78889, "49": 78890}, "name": {"0": "N", "1": "HN", "2": "CA", "3": "HA", "4": "C", "5": "O", "6": "CB", "7": "HB1", "8": "HB2", "9": "SG", "10": "C1", "11": "H1A", "12": "H1B", "13": "C2", "14": "H2A", "15": "C3", "16": "C4", "17": "H4A", "18": "H4B", "19": "H4C", "20": "C5", "21": "H5A", "22": "H5B", "23": "C6", "24": "H6A", "25": "H6B", "26": "C7", "27": "H7A", "28": "C8", "29": "C9", "30": "H9A", "31": "H9B", "32": "H9C", "33": "C10", "34": "H10A", "35": "H10B", "36": "C11", "37": "H11A", "38": "H11B", "39": "C12", "40": "H12A", "41": "C13", "42": "C14", "43": "H14A", "44": "H14B", "45": "H14C", "46": "C15", "47": "H15A", "48": "H15B", "49": "H15C"}, "element": {"0": "N", "1": "H", "2": "C", "3": "H", "4": "C", "5": "O", "6": "C", "7": "H", "8": "H", "9": "S", "10": "C", "11": "H", "12": "H", "13": "C", "14": "H", "15": "C", "16": "C", "17": "H", "18": "H", "19": "H", "20": "C", "21": "H", "22": "H", "23": "C", "24": "H", "25": "H", "26": "C", "27": "H", "28": "C", "29": "C", "30": "H", "31": "H", "32": "H", "33": "C", "34": "H", "35": "H", "36": "C", "37": "H", "38": "H", "39": "C", "40": "H", "41": "C", "42": "C", "43": "H", "44": "H", "45": "H", "46": "C", "47": "H", "48": "H", "49": "H"}, "resSeq": {"0": 3, "1": 3, "2": 3, "3": 3, "4": 3, "5": 3, "6": 3, "7": 3, "8": 3, "9": 3, "10": 3, "11": 3, "12": 3, "13": 3, "14": 3, "15": 3, "16": 3, "17": 3, "18": 3, "19": 3, "20": 3, "21": 3, "22": 3, "23": 3, "24": 3, "25": 3, "26": 3, "27": 3, "28": 3, "29": 3, "30": 3, "31": 3, "32": 3, "33": 3, "34": 3, "35": 3, "36": 3, "37": 3, "38": 3, "39": 3, "40": 3, "41": 3, "42": 3, "43": 3, "44": 3, "45": 3, "46": 3, "47": 3, "48": 3, "49": 3}, "resName": {"0": "CYSF", "1": "CYSF", "2": "CYSF", "3": "CYSF", "4": "CYSF", "5": "CYSF", "6": "CYSF", "7": "CYSF", "8": "CYSF", "9": "CYSF", "10": "CYSF", "11": "CYSF", "12": "CYSF", "13": "CYSF", "14": "CYSF", "15": "CYSF", "16": "CYSF", "17": "CYSF", "18": "CYSF", "19": "CYSF", "20": "CYSF", "21": "CYSF", "22": "CYSF", "23": "CYSF", "24": "CYSF", "25": "CYSF", "26": "CYSF", "27": "CYSF", "28": "CYSF", "29": "CYSF", "30": "CYSF", "31": "CYSF", "32": "CYSF", "33": "CYSF", "34": "CYSF", "35": "CYSF", "36": "CYSF", "37": "CYSF", "38": "CYSF", "39": "CYSF", "40": "CYSF", "41": "CYSF", "42": "CYSF", "43": "CYSF", "44": "CYSF", "45": "CYSF", "46": "CYSF", "47": "CYSF", "48": "CYSF", "49": "CYSF"}, "chainID": {"0": 0, "1": 0, "2": 0, "3": 0, "4": 0, "5": 0, "6": 0, "7": 0, "8": 0, "9": 0, "10": 0, "11": 0, "12": 0, "13": 0, "14": 0, "15": 0, "16": 0, "17": 0, "18": 0, "19": 0, "20": 0, "21": 0, "22": 0, "23": 0, "24": 0, "25": 0, "26": 0, "27": 0, "28": 0, "29": 0, "30": 0, "31": 0, "32": 0, "33": 0, "34": 0, "35": 0, "36": 0, "37": 0, "38": 0, "39": 0, "40": 0, "41": 0, "42": 0, "43": 0, "44": 0, "45": 0, "46": 0, "47": 0, "48": 0, "49": 0}, "segmentID": {"0": "", "1": "", "2": "", "3": "", "4": "", "5": "", "6": "", "7": "", "8": "", "9": "", "10": "", "11": "", "12": "", "13": "", "14": "", "15": "", "16": "", "17": "", "18": "", "19": "", "20": "", "21": "", "22": "", "23": "", "24": "", "25": "", "26": "", "27": "", "28": "", "29": "", "30": "", "31": "", "32": "", "33": "", "34": "", "35": "", "36": "", "37": "", "38": "", "39": "", "40": "", "41": "", "42": "", "43": "", "44": "", "45": "", "46": "", "47": "", "48": "", "49": ""}}, "cg_topology": {"serial": {"0": 7, "1": 8, "2": 9, "3": 10, "4": 11, "5": 12, "6": 13, "7": 14}, "name": {"0": "BB", "1": "SC1", "2": "C1", "3": "C2", "4": "C3", "5": "C4", "6": "C5", "7": "C6"}, "element": {"0": "B", "1": "S", "2": "C", "3": "C", "4": "C", "5": "C", "6": "C", "7": "C"}, "resSeq": {"0": 3, "1": 3, "2": 3, "3": 3, "4": 3, "5": 3, "6": 3, "7": 3}, "resName": {"0": "CYSF", "1": "CYSF", "2": "CYSF", "3": "CYSF", "4": "CYSF", "5": "CYSF", "6": "CYSF", "7": "CYSF"}, "chainID": {"0": 0, "1": 0, "2": 0, "3": 0, "4": 0, "5": 0, "6": 0, "7": 0}, "segmentID": {"0": "", "1": "", "2": "", "3": "", "4": "", "5": "", "6": "", "7": ""}}}
