{"transformer": {"trained": true, "refine": true, "shave": true, "use_pca": false, "triangulate": false, "n_components": null, "x_shaver": null, "y_shaver": {"n_tot": 58, "tmat": [[1.0, 0.0, 2.0, 4.0, 0.10030947625637054, 2.0620570182800293, 0.43428924679756165], [3.0, 2.0, 4.0, 0.0, 0.10817109048366547, 1.7935795783996582, -2.018707752227783], [5.0, 4.0, 2.0, 0.0, 0.12662915885448456, 2.0815963745117188, -0.21646848320960999], [7.0, 6.0, 2.0, 9.0, 0.11078351736068726, 1.7730884552001953, -2.085092544555664], [8.0, 6.0, 2.0, 9.0, 0.11150781065225601, 1.8406765460968018, 2.0747406482696533], [11.0, 10.0, 12.0, 9.0, 0.12221703678369522, 2.1766395568847656, -3.0968945026397705], [13.0, 12.0, 15.0, 10.0, 0.11072032898664474, 1.8126858472824097, 1.9915860891342163], [14.0, 12.0, 15.0, 10.0, 0.11082439124584198, 2.090527296066284, -2.300652027130127], [17.0, 15.0, 18.0, 12.0, 0.1118030697107315, 1.7945125102996826, -2.306763172149658], [16.0, 15.0, 18.0, 12.0, 0.11080647259950638, 1.9764370918273926, 2.056340217590332], [19.0, 18.0, 21.0, 15.0, 0.11094605922698975, 1.8771716356277466, -2.2516915798187256], [20.0, 18.0, 21.0, 15.0, 0.1103491485118866, 1.7529455423355103, 2.068296432495117], [22.0, 21.0, 18.0, 24.0, 0.11067049205303192, 1.8368494510650635, -2.2658987045288086], [23.0, 21.0, 18.0, 24.0, 0.11079278588294983, 1.8366060256958008, 2.1075823307037354], [25.0, 24.0, 21.0, 27.0, 0.11034968495368958, 1.9106285572052002, -2.1923506259918213], [26.0, 24.0, 21.0, 27.0, 0.11157524585723877, 1.8433562517166138, 2.0498692989349365], [29.0, 27.0, 24.0, 30.0, 0.11086946725845337, 1.968092441558838, 2.2920525074005127], [28.0, 27.0, 24.0, 30.0, 0.11125195026397705, 1.9173908233642578, -2.0898637771606445], [32.0, 30.0, 33.0, 27.0, 0.11011812835931778, 1.8251128196716309, -2.0989203453063965], [31.0, 30.0, 33.0, 27.0, 0.11127468198537827, 1.8550333976745605, 2.037553071975708], [34.0, 33.0, 30.0, 36.0, 0.11125172674655914, 1.8889321088790894, -2.4458935260772705], [35.0, 33.0, 30.0, 36.0, 0.11162899434566498, 1.7691636085510254, 2.0226988792419434], [37.0, 36.0, 39.0, 33.0, 0.11113929003477097, 1.6858283281326294, 2.1223621368408203], [38.0, 36.0, 39.0, 33.0, 0.11083786189556122, 1.955138921737671, -2.1474761962890625], [40.0, 39.0, 42.0, 36.0, 0.11159280687570572, 1.797206163406372, 2.1849348545074463], [41.0, 39.0, 42.0, 36.0, 0.11075206845998764, 1.9460995197296143, -2.045888900756836], [43.0, 42.0, 39.0, 45.0, 0.11021365225315094, 1.8807933330535889, -2.2047781944274902], [44.0, 42.0, 39.0, 45.0, 0.11137300729751587, 1.8499313592910767, 2.0892062187194824], [47.0, 45.0, 42.0, 48.0, 0.11054851859807968, 1.851677656173706, 2.185803174972534], [46.0, 45.0, 42.0, 48.0, 0.1107158213853836, 1.8704233169555664, -2.0301597118377686], [49.0, 48.0, 51.0, 45.0, 0.11138200759887695, 1.8649991750717163, 2.2248926162719727], [50.0, 48.0, 51.0, 45.0, 0.11085544526576996, 1.8477587699890137, -2.0794856548309326], [52.0, 51.0, 54.0, 48.0, 0.11189717054367065, 1.8615403175354004, 2.1242640018463135], [53.0, 51.0, 54.0, 48.0, 0.11144093424081802, 1.846718430519104, -2.083956003189087], [55.0, 54.0, 51.0, 48.0, 0.11075657606124878, 1.9274976253509521, -1.1802308559417725], [56.0, 54.0, 51.0, 48.0, 0.1111123338341713, 2.1000587940216064, 1.0234700441360474], [57.0, 54.0, 51.0, 48.0, 0.11177640408277512, 1.8771964311599731, 3.1365954875946045]]}, "x_fitter": {"mean": [[4.563357830047607, 4.954179286956787, 3.2171216011047363], [4.507746696472168, 4.941795825958252, 3.5104682445526123], [4.468576908111572, 4.889987468719482, 3.827206611633301], [4.597086429595947, 4.835698127746582, 4.18102502822876], [4.865368366241455, 4.76627779006958, 4.534523963928223], [5.194350719451904, 4.699350833892822, 4.785950660705566]], "max_its": 10, "drmsd": 0.01, "converged": true}, "y_fitter": {"mean": [[4.623517990112305, 4.918093204498291, 3.2881662845611572], [4.553942680358887, 4.965490818023682, 3.2899489402770996], [4.544162273406982, 5.028820037841797, 3.188812255859375], [4.536320686340332, 5.000552654266357, 3.3962254524230957], [4.529075622558594, 4.927248954772949, 3.5217723846435547], [4.457456588745117, 4.938724040985107, 3.611889123916626], [4.441522121429443, 4.887272834777832, 3.7294697761535645], [4.462992191314697, 4.878467082977295, 3.8339033126831055], [4.477259635925293, 4.858142852783203, 3.939453363418579], [4.518681526184082, 4.838343143463135, 4.037118434906006], [4.556760787963867, 4.824049949645996, 4.139227390289307], [4.613824844360352, 4.804404258728027, 4.235122203826904], [4.669064998626709, 4.785722732543945, 4.331431865692139], [4.739742755889893, 4.772918701171875, 4.4217939376831055], [4.815903186798096, 4.760106563568115, 4.504754543304443], [4.898805618286133, 4.749448776245117, 4.582894325256348], [4.982677936553955, 4.742135047912598, 4.654658794403076], [5.070801258087158, 4.730284214019775, 4.717096328735352], [5.152365684509277, 4.723809719085693, 4.771200656890869], [5.228881359100342, 4.713558197021484, 4.824546813964844], [5.297299861907959, 4.71052885055542, 4.869512557983398]], "max_its": 10, "drmsd": 0.01, "converged": true}, "x_refiner": {"max_its": 1000, "tol": 0.001, "fc": 0.1, "n_atoms": 6, "restraints": [[0, 1], [1, 2], [2, 3], [3, 4], [4, 5], [0, 2], [1, 3], [2, 4], [3, 5]], "d_ref": [0.34452258734032326, 0.3460138443793128, 0.41181792571082115, 0.46953468131006276, 0.46570309572727675, 0.6672893208530405, 0.7041217181460377, 0.8428758782554013, 0.8884167927844203], "result": null}, "y_refiner": {"max_its": 1000, "tol": 0.001, "fc": 0.1, "n_atoms": 21, "restraints": [[0, 1], [1, 2], [1, 3], [3, 4], [4, 5], [5, 6], [6, 7], [7, 8], [8, 9], [9, 10], [10, 11], [11, 12], [12, 13], [13, 14], [14, 15], [15, 16], [16, 17], [17, 18], [18, 19], [19, 20], [0, 2], [0, 3], [1, 4], [2, 3], [3, 5], [4, 6], [5, 7], [6, 8], [7, 9], [8, 10], [9, 11], [10, 12], [11, 13], [12, 14], [13, 15], [14, 16], [15, 17], [16, 18], [17, 19], [18, 20]], "d_ref": [0.14618102516816905, 0.15263695014854253, 0.15553361322462922, 0.1836726827002764, 0.18236639931807327, 0.1534607760494875, 0.1547760806004739, 0.1538931339784417, 0.1537112574379349, 0.15369777314602592, 0.15352570565658083, 0.1537244288723898, 0.1538167482261073, 0.153759022146285, 0.15376315720163075, 0.15381668841686288, 0.1537149252821927, 0.1538099079653531, 0.15381930697595628, 0.15328827081815657, 0.25100495440464626, 0.25346400753025067, 0.282492326251917, 0.2544285485170638, 0.28189815941401786, 0.28379829669213513, 0.2562221118999181, 0.2571306152772781, 0.25691487239218597, 0.2566581066424298, 0.256583860748746, 0.25682774544986636, 0.2567466054338391, 0.2570819320267644, 0.25674106266575697, 0.2564948650573743, 0.2565408791620804, 0.2569445366889736, 0.2573159316309443, 0.2569773382964307], "result": null}, "pca_x": null, "pca_y": null, "xy_regressor": {"fit_intercept": true, "copy_X": true, "n_jobs": null, "positive": false, "n_features_in_": 18, "coef_": [[-3153.80517578125, -508.316162109375, 2510.114990234375, -3506.8720703125, 67.48149108886719, 2467.830078125, -3991.37451171875, 630.7401733398438, 2500.40625, -4522.98095703125, 791.2164306640625, 2718.0380859375, -5095.9404296875, 569.1708984375, 3108.732177734375, -5550.81494140625, 34.09138488769531, 3562.0703125], [-1120.0347900390625, 958.04345703125, 1629.445068359375, -439.09521484375, 1724.784423828125, 1791.3704833984375, 208.5796356201172, 2505.37451171875, 1998.855712890625, 938.73779296875, 2976.86279296875, 1805.974365234375, 1633.729248046875, 3122.703369140625, 1307.1607666015625, 2086.9921875, 2905.109619140625, 656.0311889648438], [-741.3287353515625, 432.7274475097656, -69.4278335571289, -896.3523559570312, 565.561279296875, -94.85905456542969, -1159.3895263671875, 655.5416870117188, -111.76892852783203, -1444.7440185546875, 323.51885986328125, -59.439208984375, -1767.976806640625, -360.0107421875, 51.49900436401367, -2041.93505859375, -1193.6993408203125, 188.15440368652344], [-392.5556945800781, -884.66162109375, -14.63641357421875, -427.8205261230469, -610.7315063476562, -9.658935546875, -474.42193603515625, -319.9569091796875, 32.15392303466797, -525.5457763671875, -36.20006561279297, 94.33949279785156, -580.1470947265625, 213.900146484375, 184.85116577148438, -623.14892578125, 358.8630065917969, 279.7188720703125], [496.53765869140625, 121.22293090820312, -715.0494995117188, 662.2102661132812, -54.315650939941406, -690.890625, 880.4998168945312, -221.75048828125, -691.4421997070312, 1120.7357177734375, -231.49188232421875, -780.1345825195312, 1376.4676513671875, -97.27886199951172, -947.741943359375, 1576.338623046875, 140.25909423828125, -1146.102783203125], [366.9197998046875, 412.289794921875, 825.2982788085938, 345.84228515625, 545.8060302734375, 826.17822265625, 297.6188049316406, 676.0158081054688, 841.4097900390625, 246.2343292236328, 708.1156005859375, 864.9962158203125, 184.81622314453125, 648.016845703125, 899.7387084960938, 129.5936737060547, 514.1898193359375, 936.394287109375], [1236.90869140625, -2022.83740234375, -3461.11474609375, 1339.678466796875, -2192.60498046875, -3448.414306640625, 1550.357421875, -2321.932373046875, -3443.89794921875, 1776.4639892578125, -2025.2015380859375, -3480.325439453125, 2041.59375, -1369.490966796875, -3552.5546875, 2275.04736328125, -548.6373291015625, -3639.664794921875], [-841.2319946289062, -1372.3037109375, -2442.52099609375, -979.63330078125, -2031.75, -2496.44482421875, -1001.5454711914062, -2672.42578125, -2603.942626953125, -1036.84619140625, -2812.943603515625, -2612.6513671875, -1022.0440673828125, -2485.71533203125, -2559.69677734375, -952.4791259765625, -1791.4986572265625, -2465.549560546875], [805.249267578125, 304.9613037109375, -594.9552001953125, 978.9141235351562, 88.41206359863281, -572.0742797851562, 1200.9837646484375, -125.8363037109375, -579.888916015625, 1446.061279296875, -209.28179931640625, -681.6578979492188, 1704.5048828125, -165.67523193359375, -869.2894287109375, 1904.346923828125, -9.36130142211914, -1089.07666015625], [281.2063903808594, -333.792236328125, -1191.135498046875, 311.98541259765625, -572.389892578125, -1195.5880126953125, 392.8934326171875, -802.4478759765625, -1223.3277587890625, 480.6011047363281, -835.5472412109375, -1259.8428955078125, 587.6378173828125, -686.4467163085938, -1311.784912109375, 686.5405883789062, -400.3358154296875, -1365.2230224609375], [1120.9638671875, 1075.333984375, 1257.0615234375, 723.4185791015625, 758.7261962890625, 1168.220947265625, 277.7842102050781, 406.2554931640625, 1055.7237548828125, -217.98944091796875, -56.967891693115234, 1164.7156982421875, -719.8483276367188, -578.1006469726562, 1443.30712890625, -1083.9976806640625, -1005.812744140625, 1805.8826904296875], [-903.7390747070312, -103.09710693359375, -56.41552734375, -966.877197265625, -229.87420654296875, -72.94056701660156, -1023.9312133789062, -360.406005859375, -102.76351928710938, -1088.54833984375, -455.9064025878906, -93.6363525390625, -1148.74365234375, -510.31689453125, -58.65159606933594, -1186.3828125, -508.5830383300781, -8.907440185546875], [1772.31494140625, 2952.013916015625, 3965.6435546875, 1753.02392578125, 2981.915771484375, 3962.746337890625, 1663.2403564453125, 2977.984375, 3951.2919921875, 1570.64697265625, 2675.69873046875, 3938.734375, 1451.6722412109375, 2131.263427734375, 3921.931396484375, 1336.6961669921875, 1504.881103515625, 3905.625244140625], [326.77783203125, -1732.6224365234375, 549.7034912109375, 252.23995971679688, -825.3869018554688, 573.3065185546875, 113.08367919921875, 119.67582702636719, 711.1053466796875, -37.04193115234375, 915.6761474609375, 887.7347412109375, -209.67970275878906, 1497.980712890625, 1133.3994140625, -359.59375, 1702.4998779296875, 1383.4317626953125], [-526.118896484375, -105.41342163085938, 346.857177734375, -482.7559509277344, 174.16073608398438, 367.9191589355469, -462.9876708984375, 461.119873046875, 415.91387939453125, -437.98223876953125, 662.9180908203125, 438.2672119140625, -423.6972961425781, 767.6343994140625, 447.7814636230469, -425.68682861328125, 746.6578979492188, 444.76519775390625], [625.6580810546875, 806.6826782226562, -224.3828125, 759.26416015625, 591.7098999023438, -208.26934814453125, 906.5169067382812, 362.3826599121094, -227.2787628173828, 1070.2723388671875, 124.44741821289062, -323.9683837890625, 1236.3822021484375, -98.07650756835938, -493.3412170410156, 1356.2109375, -241.49476623535156, -688.474609375], [-302.5274353027344, 1246.4761962890625, 471.4254150390625, -505.89208984375, 655.017578125, 407.7535095214844, -708.1044921875, 25.136381149291992, 280.0670471191406, -935.220703125, -598.8680419921875, 266.81378173828125, -1155.25244140625, -1156.18896484375, 324.19317626953125, -1303.4375, -1488.548095703125, 429.8507385253906], [40.47538375854492, -759.9130859375, -584.4639282226562, -25.820636749267578, -757.8380737304688, -596.034912109375, -79.92172241210938, -746.2006225585938, -601.125, -142.1431427001953, -655.3353881835938, -565.1900634765625, -197.34228515625, -501.1375732421875, -492.9154052734375, -228.65292358398438, -329.0069885253906, -406.0841064453125], [1649.7041015625, 2792.3203125, 2993.120361328125, 1905.805419921875, 2756.9697265625, 3039.95703125, 2136.48583984375, 2693.696533203125, 3058.66455078125, 2396.2802734375, 2416.71630859375, 2920.539306640625, 2639.438720703125, 1971.8402099609375, 2649.297607421875, 2790.87060546875, 1489.5789794921875, 2322.48681640625], [2173.76611328125, -729.7982788085938, -853.9388427734375, 1718.524658203125, -757.6118774414062, -941.762939453125, 1200.7149658203125, -802.0968017578125, -1012.82861328125, 624.261474609375, -971.9373779296875, -829.5074462890625, 38.46260452270508, -1236.0791015625, -436.7384948730469, -390.5926818847656, -1519.2008056640625, 49.13983154296875], [-404.29095458984375, -1082.2642822265625, -925.97021484375, -330.6039733886719, -860.8594360351562, -902.4837646484375, -247.97796630859375, -620.4900512695312, -852.0662841796875, -156.25979614257812, -339.1926574707031, -843.44287109375, -63.293365478515625, -47.66322708129883, -856.554931640625, 4.0843658447265625, 169.91290283203125, -886.8050537109375], [-1155.135986328125, -1407.24951171875, -1567.06396484375, -1622.78857421875, -1718.8385009765625, -1669.0743408203125, -2088.86181640625, -2034.6229248046875, -1778.0789794921875, -2615.178955078125, -2217.417724609375, -1615.6351318359375, -3124.92041015625, -2262.126953125, -1237.41845703125, -3470.365234375, -2157.67529296875, -757.884033203125], [-1815.3460693359375, 170.173095703125, -1195.587646484375, -1882.337158203125, -136.97122192382812, -1221.383544921875, -1970.6885986328125, -476.191650390625, -1287.65185546875, -2067.934326171875, -929.1243896484375, -1321.7666015625, -2171.47802734375, -1438.9609375, -1343.3658447265625, -2252.31005859375, -1858.9464111328125, -1349.35986328125], [-441.482421875, -471.2308654785156, 265.28143310546875, -512.8003540039062, -436.10345458984375, 253.53453063964844, -573.7584228515625, -389.1716003417969, 254.26760864257812, -643.2772216796875, -264.54608154296875, 297.6717834472656, -706.3900756835938, -81.28334045410156, 381.6764831542969, -743.85205078125, 107.24777221679688, 480.9065246582031], [440.9598693847656, 3340.271728515625, 3105.76904296875, 335.13525390625, 2929.44287109375, 3068.74267578125, 176.11279296875, 2460.8271484375, 2971.533203125, 0.7296142578125, 1729.6640625, 2923.26220703125, -192.4713592529297, 830.5491943359375, 2892.972412109375, -350.7203674316406, 24.516769409179688, 2885.565185546875], [-92.10900115966797, 1958.1942138671875, 2702.39404296875, 85.23661041259766, 1979.1173095703125, 2737.072509765625, 262.036376953125, 1995.215576171875, 2761.00732421875, 460.765380859375, 1944.1912841796875, 2681.309326171875, 653.161865234375, 1839.498779296875, 2514.521484375, 783.5101318359375, 1711.8055419921875, 2310.18017578125], [516.7957763671875, -445.5470275878906, -1158.618896484375, 598.3858032226562, -449.567138671875, -1143.684326171875, 702.4332885742188, -445.0929870605469, -1128.7197265625, 817.2926025390625, -368.35601806640625, -1159.428955078125, 938.2185668945312, -233.2229461669922, -1225.1182861328125, 1031.6466064453125, -79.47454833984375, -1306.29931640625], [-1201.447021484375, 262.3912353515625, 1543.4130859375, -1531.06201171875, 240.6828155517578, 1479.91064453125, -1918.0701904296875, 200.28366088867188, 1425.35791015625, -2347.179931640625, 13.730164527893066, 1553.225341796875, -2790.321533203125, -286.7467346191406, 1829.1593017578125, -3118.54150390625, -613.914306640625, 2172.1630859375], [3356.585693359375, -1617.951416015625, -1199.202392578125, 3058.214111328125, -1311.431640625, -1242.5008544921875, 2724.564453125, -986.1541748046875, -1230.993896484375, 2353.1298828125, -674.7440185546875, -1047.972900390625, 1976.9366455078125, -407.07904052734375, -710.1030883789062, 1704.4935302734375, -257.1188659667969, -313.5037841796875], [2293.0283203125, -163.148193359375, -202.19772338867188, 2017.6337890625, -454.66986083984375, -266.5711364746094, 1768.174072265625, -743.29248046875, -344.4048767089844, 1485.2445068359375, -850.4030151367188, -257.6947021484375, 1221.4091796875, -782.9700927734375, -45.04350280761719, 1055.63623046875, -562.142822265625, 230.6854248046875], [-2043.282470703125, 1221.1151123046875, -1957.2373046875, -1487.6668701171875, 849.6328125, -1867.3968505859375, -880.7100219726562, 452.3297424316406, -1857.6585693359375, -202.30569458007812, 39.74784469604492, -2166.72021484375, 475.8227844238281, -346.8001708984375, -2758.40869140625, 962.5028076171875, -596.6115112304688, -3461.446533203125], [-3642.8740234375, 1403.16259765625, 949.2413330078125, -3025.942626953125, 1469.671875, 1069.147705078125, -2361.1279296875, 1540.730224609375, 1162.9046630859375, -1618.16259765625, 1614.93896484375, 904.2423706054688, -876.9015502929688, 1682.189697265625, 354.93511962890625, -350.0320739746094, 1726.2750244140625, -322.70947265625], [1295.0634765625, 84.25408935546875, 1370.5419921875, 1178.475341796875, 368.0509033203125, 1360.3065185546875, 1029.6845703125, 661.9447631835938, 1390.1202392578125, 865.4560546875, 886.9356079101562, 1485.228271484375, 692.3823852539062, 1027.8033447265625, 1643.09228515625, 558.652099609375, 1045.1529541015625, 1822.752685546875], [-1338.831787109375, -2473.73681640625, -2687.927001953125, -855.26513671875, -2153.918701171875, -2582.7685546875, -257.349609375, -1767.33349609375, -2445.3544921875, 404.5916748046875, -995.623046875, -2567.268798828125, 1094.001220703125, 52.04447937011719, -2885.339111328125, 1619.638671875, 1069.7962646484375, -3302.161376953125], [3929.615234375, -820.342529296875, 1380.922119140625, 3497.728271484375, -385.7206726074219, 1317.306396484375, 3002.674072265625, 67.55950164794922, 1330.372314453125, 2452.343017578125, 445.8642883300781, 1588.0289306640625, 1890.795166015625, 716.4711303710938, 2067.411376953125, 1478.4835205078125, 805.7833862304688, 2630.95166015625], [854.784423828125, 226.3482666015625, 1127.4532470703125, 464.8262023925781, 123.1280288696289, 1049.225341796875, 33.968841552734375, 6.419658660888672, 976.681396484375, -446.29083251953125, -167.04855346679688, 1125.644287109375, -930.023193359375, -375.80859375, 1450.729248046875, -1278.4471435546875, -558.8779907226562, 1857.88671875], [5409.26708984375, -3101.752685546875, -1965.436767578125, 4888.70654296875, -2714.0087890625, -2047.7935791015625, 4364.15234375, -2274.832275390625, -2040.8992919921875, 3775.839111328125, -1614.4652099609375, -1725.619140625, 3201.8896484375, -816.5322265625, -1133.3330078125, 2810.67041015625, -112.7012710571289, -434.8075256347656], [-3101.534912109375, -104.550048828125, -1710.6109619140625, -2720.65869140625, -376.1134338378906, -1649.953369140625, -2271.6318359375, -649.4467163085938, -1639.008056640625, -1773.799072265625, -784.72021484375, -1841.0201416015625, -1261.051025390625, -784.5874633789062, -2229.389892578125, -879.7402954101562, -649.0470581054688, -2692.74951171875], [-4826.11328125, 1529.8052978515625, 450.35211181640625, -4103.1826171875, 1522.1373291015625, 587.113525390625, -3351.286865234375, 1498.16357421875, 676.061767578125, -2508.91796875, 1341.96337890625, 347.11834716796875, -1678.6688232421875, 1080.7591552734375, -334.98760986328125, -1101.29052734375, 791.045654296875, -1167.82763671875], [2840.546875, -1015.9542236328125, -2588.30517578125, 3531.505615234375, -491.55670166015625, -2435.538818359375, 4281.51806640625, 76.80557250976562, -2249.281005859375, 5119.50390625, 730.40576171875, -2453.50830078125, 5958.49755859375, 1398.6624755859375, -2958.55712890625, 6555.89794921875, 1889.129150390625, -3610.81689453125], [489.7451171875, -1316.9332275390625, -3043.9345703125, 624.7039184570312, -1391.219482421875, -3021.5146484375, 804.719970703125, -1453.1585693359375, -3009.378662109375, 1002.4064331054688, -1368.94287109375, -3068.3740234375, 1213.6309814453125, -1160.8895263671875, -3187.6884765625, 1379.1002197265625, -891.451904296875, -3332.571044921875], [-2571.435791015625, -341.4312744140625, 2567.09326171875, -3041.82373046875, -428.5720520019531, 2474.535400390625, -3519.41796875, -506.0306701660156, 2402.458251953125, -4055.74951171875, -456.71484375, 2605.354248046875, -4579.68701171875, -297.2310791015625, 3034.530517578125, -4938.369140625, -74.85612487792969, 3562.39501953125], [-1244.54296875, -2628.528076171875, -1325.686767578125, -1318.40966796875, -2394.03271484375, -1329.5146484375, -1330.8751220703125, -2104.183837890625, -1283.9854736328125, -1351.11865234375, -1479.0416259765625, -1180.6256103515625, -1343.767333984375, -609.68115234375, -1014.719482421875, -1309.557861328125, 250.66122436523438, -831.768798828125], [-3523.055419921875, 641.2080078125, 1149.427978515625, -3051.464111328125, 486.81048583984375, 1232.1318359375, -2480.687255859375, 353.55157470703125, 1281.0089111328125, -1848.7978515625, 481.609375, 1071.07666015625, -1192.639892578125, 835.2060546875, 642.7952880859375, -698.280517578125, 1307.0963134765625, 121.4190673828125], [2560.3994140625, 2924.94091796875, 1712.6796875, 2753.4765625, 2718.4873046875, 1740.417724609375, 2908.306640625, 2466.275146484375, 1718.379150390625, 3086.2822265625, 1944.1629638671875, 1573.810791015625, 3242.859375, 1227.355712890625, 1314.974609375, 3329.7119140625, 524.465087890625, 1013.1624755859375], [-1476.3232421875, 59.5848388671875, -450.9231872558594, -1390.9259033203125, 155.03114318847656, -430.8387145996094, -1339.955322265625, 235.49029541015625, -411.2552490234375, -1279.5218505859375, 140.01524353027344, -447.88250732421875, -1234.072265625, -106.22958374023438, -530.01513671875, -1222.45361328125, -429.8466796875, -632.5103759765625], [-30.32122230529785, 686.5349731445312, 1107.2305908203125, 256.2934265136719, 1040.218505859375, 1176.6085205078125, 518.14990234375, 1395.88623046875, 1267.0640869140625, 814.7529296875, 1577.623046875, 1187.31689453125, 1092.281005859375, 1585.78955078125, 977.8408203125, 1267.740478515625, 1416.8829345703125, 703.859619140625], [939.7109375, -1092.935546875, -750.5364990234375, 811.0335693359375, -1014.2879638671875, -771.601318359375, 691.393798828125, -918.6476440429688, -770.5836791992188, 555.9962158203125, -725.1874389648438, -692.20751953125, 428.45123291015625, -461.26953125, -542.0298461914062, 346.4779357910156, -204.062255859375, -367.567626953125], [-2907.9072265625, -200.3909912109375, -221.85028076171875, -3127.484619140625, -577.060791015625, -279.00604248046875, -3333.052734375, -966.543701171875, -368.8233642578125, -3565.769775390625, -1260.1964111328125, -328.8335876464844, -3784.654541015625, -1438.972412109375, -197.23626708984375, -3927.329345703125, -1452.3966064453125, -15.051025390625], [1535.947998046875, -1689.56201171875, 162.5848846435547, 1072.6986083984375, -1238.6776123046875, 94.11099243164062, 536.6392822265625, -771.1345825195312, 103.9547348022461, -58.58247375488281, -408.8558654785156, 376.0083312988281, -667.53564453125, -174.94290161132812, 883.5078125, -1116.8121337890625, -138.28604125976562, 1481.64013671875], [394.5514831542969, -149.0172119140625, -1724.7958984375, 709.0216064453125, -114.96630096435547, -1663.781982421875, 1050.5902099609375, -77.14259338378906, -1615.3101806640625, 1431.7484130859375, -26.020278930664062, -1746.4764404296875, 1813.6859130859375, 32.41150665283203, -2023.246337890625, 2085.90185546875, 81.004638671875, -2367.677734375], [-3672.420654296875, -198.5390625, -1422.00048828125, -3763.4287109375, -152.23126220703125, -1437.26025390625, -3956.2294921875, -153.39520263671875, -1461.4835205078125, -4162.99365234375, -578.44287109375, -1451.5546875, -4405.986328125, -1347.3170166015625, -1417.4730224609375, -4622.66357421875, -2233.79248046875, -1370.263427734375], [167.15370178222656, 2228.7626953125, 3291.38818359375, 60.120079040527344, 1884.966064453125, 3256.779052734375, -53.1796875, 1514.7908935546875, 3182.089111328125, -180.08770751953125, 1111.1881103515625, 3166.136962890625, -305.94134521484375, 716.810791015625, 3184.086669921875, -394.3812255859375, 443.5638122558594, 3227.22705078125], [2133.245849609375, 845.9617919921875, 937.664306640625, 2345.147705078125, 764.189208984375, 974.237548828125, 2604.93115234375, 692.90673828125, 995.02392578125, 2892.201171875, 752.4664306640625, 899.12548828125, 3191.69970703125, 925.1986694335938, 706.9391479492188, 3418.72802734375, 1159.7164306640625, 471.97857666015625], [338.65087890625, 779.0427856445312, 2679.578369140625, 174.55224609375, 801.6201171875, 2649.53515625, 15.026519775390625, 835.84912109375, 2635.162353515625, -164.80331420898438, 953.5714111328125, 2718.719482421875, -337.1535949707031, 1135.775146484375, 2885.542724609375, -451.3069152832031, 1329.131103515625, 3086.9638671875], [172.10848999023438, -2245.603271484375, -4115.2998046875, -223.2042236328125, -2455.6220703125, -4198.921875, -644.5614013671875, -2678.851318359375, -4287.90771484375, -1115.307373046875, -2901.943115234375, -4150.7412109375, -1583.6859130859375, -3102.746337890625, -3835.091552734375, -1913.86279296875, -3223.911865234375, -3435.275390625], [-340.588134765625, -935.6004638671875, -2746.957763671875, -242.23008728027344, -998.554931640625, -2730.8173828125, -136.0184326171875, -1066.617431640625, -2728.919921875, -17.628509521484375, -1143.2908935546875, -2783.898681640625, 100.84476470947266, -1220.3463134765625, -2888.558349609375, 184.85646057128906, -1275.564453125, -3012.7529296875], [991.3170776367188, 1551.568359375, 1825.91552734375, 816.1195068359375, 1300.3240966796875, 1781.896484375, 626.0641479492188, 1028.48974609375, 1714.29052734375, 413.8758850097656, 721.4400634765625, 1743.959716796875, 201.345703125, 411.81158447265625, 1844.384033203125, 51.195465087890625, 188.53018188476562, 1983.026123046875], [-1048.79248046875, -452.16473388671875, -933.8509521484375, -1052.1226806640625, -658.822509765625, -943.26123046875, -1013.3203125, -858.9888916015625, -971.18310546875, -973.857666015625, -892.12548828125, -990.5716552734375, -917.673583984375, -771.1536865234375, -1009.3215942382812, -858.2427368164062, -531.071533203125, -1023.54736328125], [-686.63330078125, 1355.506103515625, 720.8360595703125, -728.69677734375, 1101.61181640625, 702.3452758789062, -800.96337890625, 813.2215576171875, 645.8582153320312, -879.0394897460938, 370.85479736328125, 606.771484375, -967.698486328125, -168.3463592529297, 567.7138671875, -1042.877685546875, -647.954345703125, 539.8775634765625], [3000.08837890625, 1011.478271484375, 452.4517822265625, 3216.20263671875, 903.295166015625, 488.79132080078125, 3458.670166015625, 791.1312255859375, 500.7396545410156, 3728.5986328125, 706.2984008789062, 389.2987060546875, 4001.029296875, 654.2879028320312, 171.75360107421875, 4201.41796875, 649.1810913085938, -88.966064453125], [1748.741455078125, 1592.4771728515625, 1559.56494140625, 1869.0595703125, 1624.08203125, 1583.21484375, 1975.47412109375, 1645.7630615234375, 1600.5704345703125, 2096.5380859375, 1564.4150390625, 1543.772216796875, 2208.2802734375, 1396.7249755859375, 1426.3819580078125, 2277.094970703125, 1195.2137451171875, 1282.171875], [-758.5592651367188, -2467.12353515625, -1510.323486328125, -871.6934814453125, -2226.177001953125, -1521.57373046875, -932.5272827148438, -1932.60302734375, -1481.23388671875, -1006.0478515625, -1329.5579833984375, -1361.5174560546875, -1055.4779052734375, -503.7783203125, -1162.863525390625, -1062.2802734375, 304.3372802734375, -936.5255126953125]], "rank_": 18, "singular_": [3.998396158218384, 2.304262399673462, 2.252596616744995, 1.6076761484146118, 1.1310508251190186, 1.1193615198135376, 0.8803966045379639, 0.7312016487121582, 0.6636680960655212, 0.5407558083534241, 0.3790796995162964, 0.2847239375114441, 0.0001188575042760931, 4.363896732684225e-05, 2.4355778805329464e-05, 1.747622445691377e-05, 8.388971764361486e-06, 6.261910584726138e-06], "intercept_": [46043.984375, -121192.1328125, 36172.99609375, 18141.041015625, -7125.04248046875, -45192.6640625, 87086.8203125, 152116.15625, -19624.37890625, 34985.1953125, -35026.33203125, 41784.14453125, -213472.0625, -29535.978515625, -10021.8037109375, -26786.919921875, 20724.615234375, 34171.140625, -200077.78125, 20100.48828125, 40234.01171875, 157936.109375, 110738.625, 16713.748046875, -128334.6953125, -128485.9921875, 16717.458984375, 21441.388671875, -22799.712890625, -25452.109375, 63485.16796875, -6448.26416015625, -82529.546875, 93299.21875, -121747.0, -20687.0390625, -25865.41796875, 119831.5390625, 42695.3515625, -80136.8828125, 85679.296875, 50173.60546875, 108512.828125, 18187.462890625, -177637.71875, 48712.2578125, -81494.53125, 19297.64453125, 131267.1875, 2883.001220703125, 10726.482421875, 172463.46875, -112386.4296875, -122847.0, -93063.4921875, 201787.0625, 102038.4375, -83458.609375, 71292.421875, -4865.046875, -132066.015625, -137000.109375, 98232.5703125]}, "yx_regressor": {"fit_intercept": true, "copy_X": true, "n_jobs": null, "positive": false, "n_features_in_": 63, "coef_": [[-121.51752471923828, 105.69094848632812, -113.06880187988281, -133.26754760742188, 88.33349609375, -109.47361755371094, -163.67483520507812, 71.44538879394531, -117.28363037109375, -126.21354675292969, 99.55111694335938, -112.0914306640625, -89.35650634765625, 115.90470886230469, -100.35829162597656, -78.9289321899414, 111.15614318847656, -91.30272674560547, -48.40837097167969, 124.234130859375, -81.65408325195312, -30.773895263671875, 144.733154296875, -83.44764709472656, -10.029680252075195, 163.61204528808594, -82.5836410522461, 9.481847763061523, 188.14727783203125, -85.8968276977539, 28.149768829345703, 212.4892120361328, -89.52623748779297, 47.29352569580078, 240.61813354492188, -95.10993957519531, 66.36006927490234, 268.3752746582031, -100.5788803100586, 82.96623229980469, 299.1097106933594, -109.24951171875, 98.42864227294922, 330.2034912109375, -118.75068664550781, 112.77326202392578, 362.21685791015625, -129.4593505859375, 125.18379974365234, 393.56610107421875, -140.90870666503906, 137.48165893554688, 424.62811279296875, -152.252685546875, 147.14195251464844, 452.80792236328125, -163.43820190429688, 157.5972137451172, 479.6560363769531, -173.3464813232422, 165.0289306640625, 503.26434326171875, -183.04910278320312], [24.872882843017578, 28.64531707763672, -115.82733917236328, 23.30723762512207, 26.518587112426758, -127.4336929321289, 29.81499481201172, 14.235067367553711, -136.01744079589844, 12.698111534118652, 38.56687927246094, -133.32945251464844, 4.257654190063477, 53.29407501220703, -125.12222290039062, -3.954486846923828, 61.58311462402344, -132.83238220214844, -12.54941463470459, 75.40643310546875, -127.98056030273438, -21.36508560180664, 88.54835510253906, -125.02256774902344, -29.886436462402344, 101.68981170654297, -121.37403106689453, -37.751712799072266, 114.79487609863281, -115.35346221923828, -46.19910430908203, 128.3019561767578, -110.34967041015625, -53.89607238769531, 141.6973876953125, -102.99446105957031, -61.6489372253418, 155.08116149902344, -95.92433166503906, -69.15726470947266, 168.251220703125, -88.25479125976562, -75.96759796142578, 180.74154663085938, -80.0782470703125, -82.38043975830078, 192.87261962890625, -71.5440444946289, -88.42408752441406, 204.27842712402344, -63.36394119262695, -93.48394775390625, 214.65548706054688, -54.248931884765625, -98.0045394897461, 223.8641815185547, -46.36798858642578, -102.2957534790039, 232.82485961914062, -38.45359802246094, -106.12126922607422, 240.4752960205078, -32.125244140625], [87.27771759033203, -78.785888671875, -70.45001983642578, 99.39915466308594, -61.61240768432617, -54.86277770996094, 98.14402770996094, -50.80253219604492, -47.79949188232422, 125.620849609375, -66.2414321899414, -49.20513153076172, 128.3267364501953, -74.93955993652344, -54.227317810058594, 146.12332153320312, -64.86837768554688, -41.40837860107422, 152.93020629882812, -70.69971466064453, -42.993408203125, 168.08187866210938, -84.78422546386719, -47.35224533081055, 180.57559204101562, -97.15841674804688, -51.43635559082031, 191.877197265625, -115.59369659423828, -59.91486358642578, 205.317138671875, -133.57302856445312, -67.43869018554688, 216.37503051757812, -155.72061157226562, -78.57123565673828, 227.69960021972656, -177.46461486816406, -89.3446044921875, 239.5450439453125, -202.49728393554688, -102.11524200439453, 250.183349609375, -228.27490234375, -115.81173706054688, 260.49139404296875, -255.34278869628906, -130.48773193359375, 270.61102294921875, -282.0948181152344, -145.01438903808594, 278.0369873046875, -309.12371826171875, -160.62374877929688, 285.4235534667969, -333.8121643066406, -174.71490478515625, 291.7158203125, -357.2013244628906, -188.27581787109375, 298.4456787109375, -377.8922119140625, -199.89085388183594], [106.25979614257812, -125.0072021484375, -17.038818359375, 115.02808380126953, -112.33959197998047, -16.775142669677734, 135.7898406982422, -96.08814239501953, -8.572479248046875, 111.66345977783203, -124.38020324707031, -13.241565704345703, 86.58061981201172, -141.04739379882812, -24.500808715820312, 80.5683822631836, -140.80027770996094, -29.497249603271484, 59.48574447631836, -154.80352783203125, -38.29148864746094, 48.28929138183594, -173.72720336914062, -37.65482711791992, 34.740989685058594, -191.52163696289062, -39.246002197265625, 22.03264808654785, -213.1825714111328, -38.25420379638672, 9.983499526977539, -234.88720703125, -36.72048568725586, -2.5564727783203125, -259.1606140136719, -34.249900817871094, -15.054012298583984, -283.162841796875, -31.861900329589844, -25.733444213867188, -309.1462707519531, -27.131378173828125, -35.75334167480469, -335.1377868652344, -21.842161178588867, -45.055267333984375, -361.6421813964844, -15.722548484802246, -53.02378845214844, -387.40966796875, -8.947012901306152, -60.99644470214844, -412.6274108886719, -2.5075912475585938, -67.2352294921875, -435.41192626953125, 4.155792236328125, -74.07160186767578, -457.19049072265625, 9.80528450012207, -78.80513000488281, -476.27239990234375, 15.705963134765625], [-71.59422302246094, -78.13432312011719, 166.53237915039062, -70.89703369140625, -77.24917602539062, 181.15652465820312, -82.69661712646484, -64.72830963134766, 190.49639892578125, -56.68231201171875, -90.2590560913086, 187.99868774414062, -41.79871368408203, -105.7923355102539, 179.6607666015625, -30.196517944335938, -115.86578369140625, 190.2923583984375, -15.839916229248047, -130.99716186523438, 185.84739685058594, -2.6764297485351562, -144.26663208007812, 181.95993041992188, 10.487719535827637, -157.75599670410156, 177.61688232421875, 22.647476196289062, -170.52880859375, 169.8150634765625, 35.467872619628906, -183.88400268554688, 163.21551513671875, 47.40803527832031, -196.73257446289062, 153.46058654785156, 59.37157440185547, -209.60806274414062, 144.05078125, 70.76448822021484, -221.90545654296875, 133.48800659179688, 81.15339660644531, -233.42208862304688, 122.1760025024414, 90.89404296875, -244.4034423828125, 110.22733306884766, 99.99095153808594, -254.60244750976562, 98.66722869873047, 107.74891662597656, -263.6756591796875, 85.91679382324219, 114.58734893798828, -271.62774658203125, 74.72870635986328, 121.22608947753906, -279.4230651855469, 63.691986083984375, 126.91047668457031, -286.0140380859375, 54.59217071533203], [-55.76781463623047, 0.6569938659667969, 1.6869697570800781, -59.66530990600586, -4.997737884521484, 2.442361831665039, -68.752197265625, -9.991945266723633, 0.2487010955810547, -58.278900146484375, -2.0493698120117188, 1.9027938842773438, -47.30904769897461, 2.5148792266845703, 5.3195343017578125, -44.66526794433594, 0.3662395477294922, 7.951683044433594, -35.817901611328125, 3.9491100311279297, 9.986095428466797, -30.96739959716797, 10.011969566345215, 9.652129173278809, -25.118240356445312, 15.540282249450684, 9.93091869354248, -19.644617080688477, 22.977022171020508, 9.109231948852539, -14.450814247131348, 30.317920684814453, 8.183647155761719, -9.046056747436523, 38.95021057128906, 6.749338626861572, -3.676637649536133, 47.4537467956543, 5.353294372558594, 0.9237895011901855, 56.97272872924805, 3.080268144607544, 5.237163066864014, 66.65430450439453, 0.5840092897415161, 9.230691909790039, 76.67638397216797, -2.2283945083618164, 12.652920722961426, 86.52012634277344, -5.260439395904541, 16.079177856445312, 96.32160949707031, -8.251176834106445, 18.765483856201172, 105.23590087890625, -11.199583053588867, 21.71300506591797, 113.71498107910156, -13.810432434082031, 23.73635482788086, 121.18661499023438, -16.38591194152832], [219.62252807617188, -8.542152404785156, 167.9033660888672, 233.83493041992188, 12.677322387695312, 161.44180297851562, 277.4167785644531, 37.4935302734375, 172.8287353515625, 218.83831787109375, -5.312644958496094, 164.8155975341797, 166.12815856933594, -30.35540771484375, 147.12290954589844, 147.82662963867188, -28.15624237060547, 132.34768676757812, 104.12689971923828, -48.71684265136719, 117.41682434082031, 76.227783203125, -78.06583404541016, 120.60971069335938, 44.567623138427734, -105.44318389892578, 119.56562805175781, 14.611310958862305, -139.47860717773438, 125.23590087890625, -14.297256469726562, -173.4384307861328, 131.37754821777344, -43.399169921875, -211.78515625, 140.8032989501953, -72.4885482788086, -249.6973876953125, 150.01446533203125, -98.13951110839844, -291.0403747558594, 164.26339721679688, -122.01663970947266, -332.51214599609375, 179.8708953857422, -144.2099151611328, -374.942626953125, 197.45065307617188, -163.6089630126953, -416.316650390625, 216.19183349609375, -182.3897705078125, -456.94122314453125, 234.7498779296875, -197.42044067382812, -493.7083740234375, 253.01492309570312, -213.40335083007812, -528.8258666992188, 269.25396728515625, -225.1348419189453, -559.58251953125, 285.06494140625], [36.87419509887695, 52.709495544433594, 62.29768753051758, 37.66415786743164, 53.73386001586914, 63.280189514160156, 44.07279586791992, 63.65895462036133, 68.89669799804688, 33.40933609008789, 44.28097152709961, 65.87934112548828, 25.75763511657715, 32.56980895996094, 58.555389404296875, 21.59996223449707, 25.493770599365234, 56.22099685668945, 14.782697677612305, 15.131185531616211, 50.573211669921875, 9.577384948730469, 4.835081100463867, 50.73193359375, 4.000439167022705, -5.383098602294922, 49.558082580566406, -1.102501392364502, -15.742521286010742, 49.68206024169922, -6.323838233947754, -26.158565521240234, 50.189720153808594, -11.426351547241211, -36.37689971923828, 51.08454132080078, -16.47982406616211, -46.59473419189453, 52.016082763671875, -21.09563446044922, -56.52698516845703, 54.24537658691406, -25.380970001220703, -65.92433166503906, 56.75200271606445, -29.419321060180664, -75.01024627685547, 59.78049087524414, -33.08757019042969, -83.52420806884766, 63.11317443847656, -36.28661346435547, -91.17115783691406, 66.30870819091797, -39.063358306884766, -97.96504211425781, 69.65950775146484, -41.891780853271484, -104.59999084472656, 72.37728118896484, -44.12635803222656, -110.23607635498047, 75.42827606201172], [-96.68225860595703, 47.82073211669922, -19.616825103759766, -105.03914642333984, 35.65193557739258, -24.15292739868164, -116.90977478027344, 23.09902572631836, -30.925148010253906, -110.10992431640625, 44.268714904785156, -27.769779205322266, -96.14485168457031, 56.59383010864258, -19.767578125, -97.31452178955078, 53.91658401489258, -20.39043426513672, -87.25741577148438, 63.79697036743164, -14.310855865478516, -84.74839782714844, 78.92234802246094, -13.572477340698242, -80.23269653320312, 92.88533020019531, -11.436250686645508, -75.87284851074219, 110.77384948730469, -10.009587287902832, -72.45626068115234, 128.54608154296875, -8.818645477294922, -68.16331481933594, 148.930908203125, -7.187660217285156, -63.95134735107422, 169.06265258789062, -5.6522345542907715, -60.90180969238281, 191.24749755859375, -4.904967308044434, -57.9250373840332, 213.59951782226562, -4.229819297790527, -55.31584930419922, 236.5966339111328, -3.8018722534179688, -53.431583404541016, 259.0765686035156, -3.8186726570129395, -50.740501403808594, 281.292724609375, -3.2932872772216797, -49.11892318725586, 301.431640625, -3.3426361083984375, -46.83442687988281, 320.6204833984375, -2.9428749084472656, -45.91502380371094, 337.4822998046875, -3.233715057373047], [-224.69862365722656, 16.985862731933594, 54.5377197265625, -236.22752380371094, 0.0413360595703125, 58.69792175292969, -273.1478271484375, -24.47718048095703, 47.16963195800781, -222.4633331298828, 18.865631103515625, 54.86769485473633, -177.9326171875, 44.41920852661133, 72.41617584228516, -161.87994384765625, 46.378875732421875, 84.90106201171875, -124.3029556274414, 67.97627258300781, 99.47940826416016, -100.1809310913086, 96.10008239746094, 96.88435363769531, -72.97251892089844, 122.69068908691406, 98.33975219726562, -47.20481491088867, 154.31256103515625, 94.00104522705078, -22.295148849487305, 186.0887451171875, 89.00865936279297, 2.7208213806152344, 221.14031982421875, 81.33021545410156, 27.758991241455078, 255.83868408203125, 73.88526916503906, 49.587833404541016, 293.0836181640625, 61.759788513183594, 70.22076416015625, 330.0976257324219, 48.5325813293457, 89.35781860351562, 367.7442626953125, 33.49526596069336, 106.13418579101562, 404.23333740234375, 17.364906311035156, 122.25576782226562, 439.7469482421875, 1.4849095344543457, 135.2548828125, 471.77850341796875, -14.268867492675781, 149.02001953125, 502.4432373046875, -28.11779022216797, 159.18862915039062, 529.2203979492188, -41.819427490234375], [70.33231353759766, 68.65269470214844, -61.001625061035156, 72.97351837158203, 72.84146118164062, -65.87010192871094, 81.83699035644531, 70.56298828125, -68.17446899414062, 69.07704162597656, 76.35964965820312, -67.91490936279297, 58.24456024169922, 80.09284973144531, -66.2942123413086, 54.0521240234375, 86.46742248535156, -70.52162170410156, 44.85358428955078, 90.4079360961914, -70.02684020996094, 38.71166229248047, 91.92280578613281, -68.5582046508789, 31.902069091796875, 93.90503692626953, -67.30886840820312, 25.502763748168945, 94.43501281738281, -64.50428009033203, 19.17823028564453, 94.98748016357422, -62.09097671508789, 12.935966491699219, 94.33528137207031, -58.532958984375, 6.716620445251465, 93.79511260986328, -55.03074645996094, 1.1246185302734375, 91.95376586914062, -50.9027099609375, -4.076534271240234, 89.9100341796875, -46.497596740722656, -8.844810485839844, 87.33445739746094, -41.730369567871094, -13.097797393798828, 84.51043701171875, -37.00917434692383, -17.15036392211914, 81.30297088623047, -31.927894592285156, -20.452486038208008, 78.16445922851562, -27.38435935974121, -23.87441635131836, 75.30552673339844, -22.9730224609375, -26.464473724365234, 72.630126953125, -19.224578857421875], [70.94096374511719, 6.4209747314453125, 24.8477783203125, 72.29151153564453, 8.727928161621094, 16.550640106201172, 90.56248474121094, 14.827962875366211, 18.424150466918945, 56.517520904541016, 3.2198524475097656, 15.648136138916016, 34.04838562011719, -3.6657238006591797, 10.304618835449219, 20.095489501953125, -6.388141632080078, -0.47870635986328125, -0.4286460876464844, -12.534557342529297, -5.9046783447265625, -17.359966278076172, -19.22378921508789, -2.983976364135742, -34.864051818847656, -25.741506576538086, -1.8933095932006836, -51.108558654785156, -32.73311996459961, 3.843809127807617, -67.83827209472656, -39.86907958984375, 9.133489608764648, -83.77197265625, -47.2591552734375, 17.077896118164062, -99.79180145263672, -54.61394119262695, 24.8160343170166, -114.61099243164062, -62.15760803222656, 35.08681869506836, -128.2673797607422, -69.49005889892578, 46.503868103027344, -141.10557556152344, -76.75830078125, 59.06319808959961, -152.7329864501953, -83.71308898925781, 72.05851745605469, -163.11032104492188, -90.25651550292969, 85.41222381591797, -171.9679412841797, -96.1087646484375, 98.03684997558594, -180.80152893066406, -101.76483154296875, 109.64481353759766, -188.0570526123047, -106.64741516113281, 120.36494445800781], [-85.6465835571289, -9.28054428100586, -89.18524169921875, -88.20425415039062, -12.928520202636719, -92.46910095214844, -96.30934143066406, -27.27419662475586, -100.71783447265625, -85.38667297363281, 0.6566944122314453, -96.53058624267578, -75.60111236572266, 17.399478912353516, -86.162841796875, -72.20368194580078, 25.804885864257812, -84.48124694824219, -63.98154830932617, 40.98972702026367, -76.83863067626953, -58.790008544921875, 56.432159423828125, -76.4869613647461, -52.87101745605469, 71.66682434082031, -74.3396987915039, -47.376502990722656, 87.35687255859375, -73.53426361083984, -41.992408752441406, 103.45636749267578, -73.28372192382812, -36.60041809082031, 119.74188995361328, -73.22918701171875, -31.114648818969727, 135.99404907226562, -73.1421127319336, -26.077707290649414, 152.2960205078125, -74.49893188476562, -21.712505340576172, 167.93309020996094, -76.2606430053711, -17.508785247802734, 183.20936584472656, -78.52066040039062, -13.882013320922852, 197.70469665527344, -81.35749053955078, -10.66064453125, 211.13560485839844, -83.6551742553711, -7.838064193725586, 223.05145263671875, -86.47130584716797, -4.85723876953125, 234.6208953857422, -88.54949951171875, -2.693735122680664, 244.57203674316406, -91.22058868408203], [-107.87486267089844, -122.80960845947266, -153.71096801757812, -113.1690902709961, -130.8733673095703, -155.59576416015625, -131.30906677246094, -151.40359497070312, -166.97190856933594, -106.6093521118164, -112.3194580078125, -160.70875549316406, -84.89974975585938, -88.95668029785156, -145.75279235839844, -76.97124481201172, -80.10186767578125, -140.61962890625, -58.73650360107422, -59.26395034790039, -129.0242156982422, -46.96611404418945, -36.52946853637695, -129.5257568359375, -33.651058197021484, -14.398801803588867, -127.06818389892578, -21.25674819946289, 9.406224250793457, -127.51151275634766, -9.061530113220215, 33.730323791503906, -128.6938018798828, 3.1804656982421875, 59.071170806884766, -130.65884399414062, 15.323989868164062, 84.27516174316406, -132.78411865234375, 26.0792236328125, 110.4930419921875, -137.5830535888672, 36.157066345214844, 135.6065673828125, -142.92193603515625, 45.5087776184082, 160.60345458984375, -149.39462280273438, 53.73561096191406, 184.54586791992188, -156.59896850585938, 61.558135986328125, 206.89962768554688, -163.40444946289062, 67.93856811523438, 227.10107421875, -170.53482055664062, 74.65425872802734, 246.56423950195312, -176.41673278808594, 79.633544921875, 263.4237976074219, -182.86843872070312], [26.313112258911133, 51.21768569946289, 45.786048889160156, 23.408935546875, 46.97039031982422, 43.88883590698242, 26.189008712768555, 52.049434661865234, 46.71799087524414, 14.423746109008789, 40.03837966918945, 44.6953125, 10.618858337402344, 32.642147064208984, 40.15797424316406, 4.095964431762695, 23.384185791015625, 36.044517517089844, -0.48757171630859375, 15.895814895629883, 32.31883239746094, -6.740796089172363, 11.377409934997559, 33.15439224243164, -12.385013580322266, 6.367064476013184, 32.92997741699219, -17.53343391418457, 3.3807425498962402, 34.536502838134766, -23.312450408935547, -0.03663754463195801, 36.204315185546875, -28.338973999023438, -1.9754533767700195, 38.853126525878906, -33.52189254760742, -4.054708480834961, 41.375736236572266, -38.623775482177734, -4.891075134277344, 45.48341369628906, -43.20496368408203, -5.01434326171875, 49.738121032714844, -47.67353057861328, -4.4211883544921875, 54.50156021118164, -51.88117218017578, -3.445070505142212, 59.57267761230469, -55.247947692871094, -1.6740474700927734, 64.3235092163086, -58.36982727050781, 0.1612377166748047, 69.2738037109375, -61.21514892578125, 1.730447769165039, 73.68022918701172, -63.940006256103516, 3.2871313095092773, 77.94557189941406], [105.9429702758789, 20.142715454101562, -3.1996383666992188, 108.7995376586914, 24.20635986328125, -1.4738235473632812, 119.89018249511719, 38.89155960083008, 6.523715972900391, 103.52464294433594, 10.609800338745117, 2.1284217834472656, 90.14230346679688, -6.330608367919922, -8.569499969482422, 84.57768249511719, -14.392890930175781, -12.020450592041016, 73.03868865966797, -29.689620971679688, -20.165264129638672, 65.18539428710938, -45.48282241821289, -19.9576473236084, 56.521156311035156, -61.015804290771484, -21.78897476196289, 48.41086959838867, -77.16755676269531, -21.604339599609375, 40.40604019165039, -93.72168731689453, -20.908296585083008, 32.4952392578125, -110.56854248046875, -19.596622467041016, 24.49042510986328, -127.36297607421875, -18.368637084960938, 17.34788703918457, -144.3193359375, -15.19467544555664, 10.78378677368164, -160.6022491455078, -11.600702285766602, 4.592705726623535, -176.605224609375, -7.293342590332031, -0.8541243076324463, -191.79873657226562, -2.3929176330566406, -5.742063522338867, -205.96420288085938, 2.1318321228027344, -9.955055236816406, -218.5414581298828, 6.959571838378906, -14.337567329406738, -230.72886657714844, 10.907073974609375, -17.636899948120117, -241.22793579101562, 15.270992279052734], [47.808502197265625, 50.853614807128906, 101.79580688476562, 50.53882598876953, 54.94473648071289, 104.53797149658203, 58.70671463012695, 67.58145904541016, 111.83894348144531, 48.5137939453125, 43.296295166015625, 108.14517211914062, 38.834938049316406, 28.72900390625, 99.02921295166016, 35.857608795166016, 22.36680793762207, 97.52835083007812, 27.866849899291992, 9.269420623779297, 90.68244934082031, 23.085968017578125, -4.54612922668457, 90.48884582519531, 17.505115509033203, -18.08293914794922, 88.65364074707031, 12.309685707092285, -32.38092041015625, 87.95539093017578, 7.277907371520996, -46.983036041259766, 87.81751251220703, 2.1287050247192383, -61.9901123046875, 87.73656463623047, -2.9613685607910156, -76.934326171875, 87.77471923828125, -7.401679992675781, -92.24140167236328, 89.11761474609375, -11.579444885253906, -106.87821960449219, 90.68872833251953, -15.459442138671875, -121.3543701171875, 92.78899383544922, -18.825023651123047, -135.1571502685547, 95.32817077636719, -22.09973907470703, -147.9525909423828, 97.50169372558594, -24.72410011291504, -159.47157287597656, 100.05330657958984, -27.541954040527344, -170.5994110107422, 101.93665313720703, -29.559574127197266, -180.2013702392578, 104.36722564697266], [-32.28316116333008, -27.29977798461914, 17.679914474487305, -30.59571647644043, -24.708192825317383, 16.07428741455078, -29.438472747802734, -29.143815994262695, 13.278548240661621, -28.367652893066406, -19.21046257019043, 14.6720609664917, -29.729076385498047, -13.127503395080566, 18.152137756347656, -28.518857955932617, -6.39671516418457, 18.225208282470703, -29.117265701293945, -0.40071678161621094, 20.845579147338867, -28.438522338867188, 3.696504592895508, 21.04205322265625, -28.143587112426758, 8.100790977478027, 21.843029022216797, -27.880916595458984, 11.182038307189941, 22.36933708190918, -27.417268753051758, 14.59480094909668, 22.66754150390625, -27.207956314086914, 17.047361373901367, 23.005903244018555, -26.9063720703125, 19.583450317382812, 23.37519073486328, -26.47607421875, 21.28565216064453, 23.288665771484375, -26.162803649902344, 22.479154586791992, 23.129653930664062, -25.762855529785156, 23.196805953979492, 22.862289428710938, -25.350160598754883, 23.59809112548828, 22.366458892822266, -25.14629364013672, 23.376585006713867, 22.331222534179688, -24.8585205078125, 23.02406883239746, 21.840463638305664, -24.701274871826172, 22.827762603759766, 21.593490600585938, -24.391054153442383, 22.5072021484375, 21.08552360534668]], "rank_": 63, "singular_": [7.8167500495910645, 4.693449974060059, 4.639671802520752, 3.13996958732605, 2.624166965484619, 2.5374844074249268, 2.0391018390655518, 1.864302635192871, 1.7449623346328735, 1.6185826063156128, 1.549296498298645, 1.3536756038665771, 1.278270959854126, 1.148151159286499, 1.1099826097488403, 1.0753661394119263, 1.053954839706421, 1.0201811790466309, 0.9944543242454529, 0.9401407837867737, 0.9144372940063477, 0.8798071146011353, 0.8338636755943298, 0.79466712474823, 0.7854391932487488, 0.776924192905426, 0.7474744915962219, 0.7284266352653503, 0.7062045335769653, 0.6919639110565186, 0.6809373497962952, 0.6406291723251343, 0.6322681307792664, 0.611873209476471, 0.5882318615913391, 0.5729460120201111, 0.5511795878410339, 0.5381729006767273, 0.522581934928894, 0.49908706545829773, 0.48081251978874207, 0.4574364721775055, 0.403719425201416, 0.3856043815612793, 0.3372951149940491, 0.30528026819229126, 0.29109421372413635, 0.26414451003074646, 0.25654879212379456, 0.2519819736480713, 0.23399172723293304, 0.21786166727542877, 0.1925748735666275, 0.16855967044830322, 0.12997332215309143, 0.09892462193965912, 0.08805803954601288, 9.928203508025035e-05, 4.627028465620242e-05, 2.1273652237141505e-05, 1.7575763195054606e-05, 1.581060678290669e-05, 7.974927029863466e-06], "intercept_": [-16869.134765625, -432.4911193847656, 5530.40576171875, 26263.9453125, 3045.60302734375, -2626.409423828125, 6623.49072265625, -2197.392822265625, -7017.54248046875, -22856.875, -6195.4716796875, 7155.115234375, 771.3806762695312, 9787.1279296875, -3296.929443359375, 6105.77587890625, -4020.559326171875, 303.87200927734375]}}, "fg_topology": {"serial": {"0": 78934, "1": 78935, "2": 78936, "3": 78937, "4": 78938, "5": 78939, "6": 78940, "7": 78941, "8": 78942, "9": 78943, "10": 78944, "11": 78945, "12": 78946, "13": 78947, "14": 78948, "15": 78949, "16": 78950, "17": 78951, "18": 78952, "19": 78953, "20": 78954, "21": 78955, "22": 78956, "23": 78957, "24": 78958, "25": 78959, "26": 78960, "27": 78961, "28": 78962, "29": 78963, "30": 78964, "31": 78965, "32": 78966, "33": 78967, "34": 78968, "35": 78969, "36": 78970, "37": 78971, "38": 78972, "39": 78973, "40": 78974, "41": 78975, "42": 78976, "43": 78977, "44": 78978, "45": 78979, "46": 78980, "47": 78981, "48": 78982, "49": 78983, "50": 78984, "51": 78985, "52": 78986, "53": 78987, "54": 78988, "55": 78989, "56": 78990, "57": 78991}, "name": {"0": "N", "1": "HN", "2": "CA", "3": "HA", "4": "C", "5": "O", "6": "CB", "7": "HB1", "8": "HB2", "9": "SG", "10": "C1", "11": "O1", "12": "C2", "13": "H2A", "14": "H2B", "15": "C3", "16": "H3A", "17": "H3B", "18": "C4", "19": "H4A", "20": "H4B", "21": "C5", "22": "H5A", "23": "H5B", "24": "C6", "25": "H6A", "26": "H6B", "27": "C7", "28": "H7A", "29": "H7B", "30": "C8", "31": "H8A", "32": "H8B", "33": "C9", "34": "H9A", "35": "H9B", "36": "C10", "37": "H10A", "38": "H10B", "39": "C11", "40": "H11A", "41": "H11B", "42": "C12", "43": "H12A", "44": "H12B", "45": "C13", "46": "H13A", "47": "H13B", "48": "C14", "49": "H14A", "50": "H14B", "51": "C15", "52": "H15A", "53": "H15B", "54": "C16", "55": "H16A", "56": "H16B", "57": "H16C"}, "element": {"0": "N", "1": "H", "2": "C", "3": "H", "4": "C", "5": "O", "6": "C", "7": "H", "8": "H", "9": "S", "10": "C", "11": "O", "12": "C", "13": "H", "14": "H", "15": "C", "16": "H", "17": "H", "18": "C", "19": "H", "20": "H", "21": "C", "22": "H", "23": "H", "24": "C", "25": "H", "26": "H", "27": "C", "28": "H", "29": "H", "30": "C", "31": "H", "32": "H", "33": "C", "34": "H", "35": "H", "36": "C", "37": "H", "38": "H", "39": "C", "40": "H", "41": "H", "42": "C", "43": "H", "44": "H", "45": "C", "46": "H", "47": "H", "48": "C", "49": "H", "50": "H", "51": "C", "52": "H", "53": "H", "54": "C", "55": "H", "56": "H", "57": "H"}, "resSeq": {"0": 3, "1": 3, "2": 3, "3": 3, "4": 3, "5": 3, "6": 3, "7": 3, "8": 3, "9": 3, "10": 3, "11": 3, "12": 3, "13": 3, "14": 3, "15": 3, "16": 3, "17": 3, "18": 3, "19": 3, "20": 3, "21": 3, "22": 3, "23": 3, "24": 3, "25": 3, "26": 3, "27": 3, "28": 3, "29": 3, "30": 3, "31": 3, "32": 3, "33": 3, "34": 3, "35": 3, "36": 3, "37": 3, "38": 3, "39": 3, "40": 3, "41": 3, "42": 3, "43": 3, "44": 3, "45": 3, "46": 3, "47": 3, "48": 3, "49": 3, "50": 3, "51": 3, "52": 3, "53": 3, "54": 3, "55": 3, "56": 3, "57": 3}, "resName": {"0": "CYSP", "1": "CYSP", "2": "CYSP", "3": "CYSP", "4": "CYSP", "5": "CYSP", "6": "CYSP", "7": "CYSP", "8": "CYSP", "9": "CYSP", "10": "CYSP", "11": "CYSP", "12": "CYSP", "13": "CYSP", "14": "CYSP", "15": "CYSP", "16": "CYSP", "17": "CYSP", "18": "CYSP", "19": "CYSP", "20": "CYSP", "21": "CYSP", "22": "CYSP", "23": "CYSP", "24": "CYSP", "25": "CYSP", "26": "CYSP", "27": "CYSP", "28": "CYSP", "29": "CYSP", "30": "CYSP", "31": "CYSP", "32": "CYSP", "33": "CYSP", "34": "CYSP", "35": "CYSP", "36": "CYSP", "37": "CYSP", "38": "CYSP", "39": "CYSP", "40": "CYSP", "41": "CYSP", "42": "CYSP", "43": "CYSP", "44": "CYSP", "45": "CYSP", "46": "CYSP", "47": "CYSP", "48": "CYSP", "49": "CYSP", "50": "CYSP", "51": "CYSP", "52": "CYSP", "53": "CYSP", "54": "CYSP", "55": "CYSP", "56": "CYSP", "57": "CYSP"}, "chainID": {"0": 0, "1": 0, "2": 0, "3": 0, "4": 0, "5": 0, "6": 0, "7": 0, "8": 0, "9": 0, "10": 0, "11": 0, "12": 0, "13": 0, "14": 0, "15": 0, "16": 0, "17": 0, "18": 0, "19": 0, "20": 0, "21": 0, "22": 0, "23": 0, "24": 0, "25": 0, "26": 0, "27": 0, "28": 0, "29": 0, "30": 0, "31": 0, "32": 0, "33": 0, "34": 0, "35": 0, "36": 0, "37": 0, "38": 0, "39": 0, "40": 0, "41": 0, "42": 0, "43": 0, "44": 0, "45": 0, "46": 0, "47": 0, "48": 0, "49": 0, "50": 0, "51": 0, "52": 0, "53": 0, "54": 0, "55": 0, "56": 0, "57": 0}, "segmentID": {"0": "", "1": "", "2": "", "3": "", "4": "", "5": "", "6": "", "7": "", "8": "", "9": "", "10": "", "11": "", "12": "", "13": "", "14": "", "15": "", "16": "", "17": "", "18": "", "19": "", "20": "", "21": "", "22": "", "23": "", "24": "", "25": "", "26": "", "27": "", "28": "", "29": "", "30": "", "31": "", "32": "", "33": "", "34": "", "35": "", "36": "", "37": "", "38": "", "39": "", "40": "", "41": "", "42": "", "43": "", "44": "", "45": "", "46": "", "47": "", "48": "", "49": "", "50": "", "51": "", "52": "", "53": "", "54": "", "55": "", "56": "", "57": ""}}, "cg_topology": {"serial": {"0": 1, "1": 2, "2": 3, "3": 4, "4": 5, "5": 6}, "name": {"0": "BB", "1": "SC1", "2": "C1", "3": "C2", "4": "C3", "5": "C4"}, "element": {"0": "B", "1": "S", "2": "C", "3": "C", "4": "C", "5": "C"}, "resSeq": {"0": 1, "1": 1, "2": 1, "3": 1, "4": 1, "5": 1}, "resName": {"0": "CYSP", "1": "CYSP", "2": "CYSP", "3": "CYSP", "4": "CYSP", "5": "CYSP"}, "chainID": {"0": 0, "1": 0, "2": 0, "3": 0, "4": 0, "5": 0}, "segmentID": {"0": "", "1": "", "2": "", "3": "", "4": "", "5": ""}}}
