{"transformer": {"trained": true, "refine": true, "shave": true, "use_pca": false, "triangulate": false, "n_components": null, "x_shaver": null, "y_shaver": {"n_tot": 49, "tmat": [[1.0, 0.0, 7.0, 2.0, 0.10000483691692352, 1.979945421218872, 3.1402485370635986], [3.0, 2.0, 5.0, 0.0, 0.10718666762113571, 1.7913389205932617, 2.003648281097412], [4.0, 2.0, 5.0, 0.0, 0.10843435674905777, 1.9610443115234375, -2.188551902770996], [6.0, 5.0, 2.0, 0.0, 0.12236442416906357, 2.1143414974212646, -0.04396900534629822], [8.0, 7.0, 0.0, 9.0, 0.12072283029556274, 2.0373241901397705, 3.0610387325286865], [10.0, 9.0, 12.0, 7.0, 0.11035846173763275, 1.8191932439804077, 2.1247425079345703], [11.0, 9.0, 12.0, 7.0, 0.1111033484339714, 1.8766863346099854, -2.1460351943969727], [13.0, 12.0, 15.0, 9.0, 0.11086005717515945, 1.981378436088562, 2.3802952766418457], [14.0, 12.0, 15.0, 9.0, 0.11134173721075058, 1.825737714767456, -1.9910082817077637], [16.0, 15.0, 12.0, 18.0, 0.11119814962148666, 1.7895088195800781, -2.079007148742676], [17.0, 15.0, 12.0, 18.0, 0.11060760915279388, 1.8819395303726196, 2.0630650520324707], [19.0, 18.0, 21.0, 15.0, 0.11130598187446594, 1.8734344244003296, 2.269183397293091], [20.0, 18.0, 21.0, 15.0, 0.1117406040430069, 1.9221112728118896, -2.190906286239624], [22.0, 21.0, 18.0, 24.0, 0.11078345030546188, 1.9423203468322754, -2.1696295738220215], [23.0, 21.0, 18.0, 24.0, 0.11098217964172363, 1.8103101253509521, 1.9177310466766357], [26.0, 24.0, 27.0, 21.0, 0.11113020032644272, 1.8380763530731201, -2.191866159439087], [25.0, 24.0, 27.0, 21.0, 0.11134622991085052, 1.895352840423584, 2.1019957065582275], [28.0, 27.0, 30.0, 24.0, 0.11136867851018906, 1.9396958351135254, 2.261779546737671], [29.0, 27.0, 30.0, 24.0, 0.1120089739561081, 1.774519681930542, -1.9902702569961548], [31.0, 30.0, 33.0, 27.0, 0.11139999330043793, 1.7777951955795288, 1.988274097442627], [32.0, 30.0, 33.0, 27.0, 0.11122506111860275, 1.9119291305541992, -2.21256685256958], [34.0, 33.0, 36.0, 30.0, 0.11086451262235641, 1.8231528997421265, 2.1421356201171875], [35.0, 33.0, 36.0, 30.0, 0.1110135167837143, 1.8759373426437378, -2.089444160461426], [37.0, 36.0, 33.0, 39.0, 0.11125179380178452, 1.8715107440948486, -2.1822216510772705], [38.0, 36.0, 33.0, 39.0, 0.1110449805855751, 1.9561301469802856, 2.1755850315093994], [40.0, 39.0, 36.0, 42.0, 0.11090978235006332, 1.8619800806045532, -2.098531723022461], [41.0, 39.0, 36.0, 42.0, 0.11116214841604233, 1.8728315830230713, 2.300950050354004], [43.0, 42.0, 45.0, 39.0, 0.11094609647989273, 1.9229485988616943, 2.2402734756469727], [44.0, 42.0, 45.0, 39.0, 0.11054899543523788, 1.8181092739105225, -2.006286859512329], [46.0, 45.0, 42.0, 39.0, 0.11130595952272415, 1.8354785442352295, 3.12153697013855], [47.0, 45.0, 42.0, 39.0, 0.11094599962234497, 1.9683877229690552, -1.1241157054901123], [48.0, 45.0, 42.0, 39.0, 0.11108993738889694, 1.980012059211731, 1.0186158418655396]]}, "x_fitter": {"mean": [[5.204135417938232, 4.970094680786133, 3.449333906173706], [5.0104498863220215, 4.798900604248047, 3.463526487350464], [4.82866907119751, 4.730899810791016, 3.7660605907440186], [4.709624767303467, 4.767578125, 4.20412540435791], [4.670525074005127, 4.885228633880615, 4.614461421966553]], "max_its": 10, "drmsd": 0.01, "converged": true}, "y_fitter": {"mean": [[5.106362819671631, 4.8867363929748535, 3.3983154296875], [5.166499614715576, 4.920078277587891, 3.4413838386535645], [5.210939407348633, 4.978060245513916, 3.4435369968414307], [5.013832092285156, 4.839723110198975, 3.435370922088623], [4.957108020782471, 4.814681529998779, 3.529960870742798], [4.857504844665527, 4.77269983291626, 3.5876073837280273], [4.811729431152344, 4.758291721343994, 3.6987507343292236], [4.765125751495361, 4.749687194824219, 3.7941715717315674], [4.723665714263916, 4.748658180236816, 3.9083504676818848], [4.698219299316406, 4.749251842498779, 4.013955116271973], [4.678310394287109, 4.760659694671631, 4.131176948547363], [4.6759209632873535, 4.7765421867370605, 4.241973400115967], [4.66921329498291, 4.797304153442383, 4.3582282066345215], [4.679956436157227, 4.827364921569824, 4.464138031005859], [4.69167423248291, 4.852421760559082, 4.570310115814209], [4.6995439529418945, 4.884923458099365, 4.6634087562561035], [4.709320068359375, 4.903953552246094, 4.751366138458252]], "max_its": 10, "drmsd": 0.01, "converged": true}, "x_refiner": {"max_its": 1000, "tol": 0.001, "fc": 0.1, "n_atoms": 5, "restraints": [[0, 1], [1, 2], [2, 3], [3, 4], [0, 2], [1, 3], [2, 4]], "d_ref": [0.31086650317801867, 0.3844750760247941, 0.47037156676978703, 0.4673850927594367, 0.5715155140326323, 0.8166434058131186, 0.8904838207353912], "result": null}, "y_refiner": {"max_its": 1000, "tol": 0.001, "fc": 0.1, "n_atoms": 17, "restraints": [[0, 3], [0, 1], [1, 2], [3, 4], [4, 5], [5, 6], [6, 7], [7, 8], [8, 9], [9, 10], [10, 11], [11, 12], [12, 13], [13, 14], [14, 15], [15, 16], [0, 4], [0, 2], [1, 3], [3, 5], [4, 6], [5, 7], [6, 8], [7, 9], [8, 10], [9, 11], [10, 12], [11, 13], [12, 14], [13, 15], [14, 16]], "d_ref": [0.13397377196109359, 0.14593261404587626, 0.15068615243751748, 0.15036141057576033, 0.1547840119921239, 0.15378462102649942, 0.15392339289025697, 0.1540291712786815, 0.15335691465158602, 0.15373980631081072, 0.1538954640347987, 0.1537071864508508, 0.15408452130159198, 0.15408796911883482, 0.15382493718412016, 0.15360185794307, 0.25037521867741713, 0.24681636374856747, 0.2501047506685797, 0.25374390451763695, 0.2575596146516797, 0.25715743873552915, 0.25675274608987836, 0.25629026315551057, 0.25686685407825227, 0.25709211107391694, 0.2571261381065566, 0.2568816652828048, 0.25721714924817735, 0.2572869533144308, 0.25753438037496296], "result": null}, "pca_x": null, "pca_y": null, "xy_regressor": {"fit_intercept": true, "copy_X": true, "n_jobs": null, "positive": false, "n_features_in_": 15, "coef_": [[-651.7059936523438, -58.402618408203125, -1525.3448486328125, -625.33203125, -62.399757385253906, -1223.43896484375, -343.7845153808594, 143.34364318847656, -1007.3847045898438, 55.46879577636719, 452.5340576171875, -924.7379150390625, 422.95806884765625, 747.5196533203125, -974.4243774414062], [657.2696533203125, -149.8790283203125, 451.4637451171875, 496.59222412109375, 21.83102035522461, 325.8044738769531, 139.26513671875, 293.2191162109375, 172.00405883789062, -262.9825134277344, 564.4014282226562, 40.332244873046875, -568.1510620117188, 756.005859375, -43.926116943359375], [-588.7841796875, 251.01123046875, -1093.4710693359375, -664.5574951171875, 365.2399597167969, -747.4500732421875, -360.6211242675781, 688.3785400390625, -493.6522216796875, 151.2982940673828, 1079.3369140625, -386.780517578125, 675.5242309570312, 1406.6910400390625, -430.8498840332031], [-106.46912384033203, 344.5772705078125, -5245.404296875, -291.3914794921875, 567.68701171875, -5074.11767578125, -440.3887023925781, 1149.819091796875, -5031.9296875, -512.3045654296875, 1840.305908203125, -5109.7373046875, -491.72857666015625, 2410.933837890625, -5271.033203125], [-99.2096176147461, -151.84974670410156, 4541.88623046875, -134.88795471191406, -118.80345153808594, 4461.5830078125, 127.40625, -527.9014892578125, 4527.0302734375, 545.875732421875, -1161.48828125, 4693.86328125, 961.9556274414062, -1775.8609619140625, 4909.685546875], [-1140.648681640625, -478.04766845703125, -3182.548583984375, -1230.4637451171875, -329.7396240234375, -2617.47314453125, -829.4837036132812, 283.8301696777344, -2238.658935546875, -160.95968627929688, 1079.4208984375, -2123.55908203125, 518.9367065429688, 1777.689453125, -2259.08056640625], [352.4170837402344, -1707.9564208984375, -1036.1737060546875, 96.72122192382812, -1456.9329833984375, -1467.142822265625, -395.13568115234375, -1517.6815185546875, -1776.9971923828125, -922.3423461914062, -1803.9677734375, -1895.9991455078125, -1301.722900390625, -2171.101806640625, -1826.723388671875], [-1123.145751953125, 545.8656005859375, -8718.8017578125, -923.7492065429688, 321.13909912109375, -8695.205078125, -708.675048828125, 1.7810865640640259, -8637.2158203125, -548.6325073242188, -298.8782653808594, -8568.9208984375, -492.1710205078125, -499.1853332519531, -8505.8232421875], [-1128.629150390625, -1350.908203125, 651.622314453125, -765.0824584960938, -1740.8665771484375, 907.7515258789062, -263.0752868652344, -2065.525146484375, 1136.74560546875, 190.49539184570312, -2244.103515625, 1274.8597412109375, 446.84881591796875, -2264.50146484375, 1305.310546875], [-15.46173095703125, 109.53925323486328, 858.4894409179688, 92.73631286621094, -13.261245727539062, 837.8388671875, 154.15390014648438, -186.03366088867188, 836.4490966796875, 160.69342041015625, -346.1138916015625, 851.8074951171875, 115.04876708984375, -451.39434814453125, 877.2898559570312], [866.8727416992188, -436.0289306640625, 191.6731719970703, 747.00244140625, -309.1490783691406, 76.2783432006836, 223.44679260253906, 137.93283081054688, -137.72410583496094, -458.50408935546875, 705.4475708007812, -370.275390625, -1050.035888671875, 1195.8726806640625, -567.5333251953125], [10.332992553710938, -83.11647033691406, 338.47528076171875, -4.511678695678711, -66.71927642822266, 334.0867919921875, 3.6943907737731934, -75.84097290039062, 335.65631103515625, 27.469810485839844, -101.89539337158203, 344.50250244140625, 57.327239990234375, -132.93971252441406, 356.0888977050781], [1229.364990234375, 780.640869140625, 2263.361328125, 1337.53466796875, 606.765625, 1631.720947265625, 861.232421875, -52.27241897583008, 1198.1376953125, 67.60560607910156, -894.78076171875, 1052.8363037109375, -739.8218994140625, -1628.1146240234375, 1186.03271484375], [403.40570068359375, -429.56854248046875, 7393.53369140625, 287.0391540527344, -271.578857421875, 7707.3798828125, 439.8286437988281, 186.465087890625, 7902.2607421875, 760.58056640625, 744.06103515625, 7942.62890625, 1121.980712890625, 1213.621337890625, 7842.45068359375], [926.9279174804688, 868.1726684570312, 1641.185546875, 1001.0037841796875, 756.9569091796875, 1308.6007080078125, 665.750732421875, 491.2371826171875, 1047.8255615234375, 109.17903137207031, 183.7158966064453, 921.6055908203125, -456.9540710449219, -65.85881042480469, 939.2030029296875], [138.81922912597656, 479.549072265625, 5071.8271484375, 307.5729064941406, 289.79766845703125, 5076.08154296875, 582.8417358398438, -111.3682861328125, 5151.76025390625, 856.1361083984375, -558.8206176757812, 5263.2548828125, 1035.876708984375, -911.3245239257812, 5381.28515625], [-693.1484985351562, -3511.33544921875, -6481.43017578125, -596.3260498046875, -3623.3515625, -6519.4521484375, -1029.2183837890625, -3273.851318359375, -6700.36328125, -1749.551513671875, -2667.968017578125, -6947.4365234375, -2482.9970703125, -2048.896728515625, -7194.6337890625], [-560.5763549804688, 2050.48486328125, -5287.05859375, -534.3309326171875, 2034.982421875, -5118.720703125, -253.0401611328125, 2005.47607421875, -4955.51220703125, 144.24026489257812, 1973.68994140625, -4846.27978515625, 509.77008056640625, 1949.52392578125, -4804.3310546875], [1242.485107421875, 3731.630859375, 5501.26171875, 1380.708251953125, 3546.96240234375, 5161.5126953125, 1411.283935546875, 2827.620849609375, 5018.0703125, 1343.23779296875, 1903.063232421875, 5076.69482421875, 1212.8607177734375, 1096.0277099609375, 5295.77685546875], [1660.430419921875, 2908.841796875, 3093.38916015625, 1626.345947265625, 2896.856689453125, 2482.537841796875, 1254.346435546875, 2249.154052734375, 2113.539794921875, 729.479736328125, 1294.86083984375, 2050.435546875, 245.595947265625, 395.2650146484375, 2262.3427734375], [952.7188720703125, 2278.65625, 3644.65869140625, 995.893310546875, 2209.65869140625, 3401.029296875, 924.6920166015625, 1830.5693359375, 3274.5771484375, 784.807373046875, 1321.385009765625, 3277.548828125, 630.5283203125, 864.4974365234375, 3394.0537109375], [701.5225830078125, -4470.92138671875, 4713.84423828125, 320.835693359375, -4051.429931640625, 4585.01025390625, -281.7415771484375, -3376.0625, 4373.20458984375, -874.03515625, -2701.18896484375, 4156.6181640625, -1253.109375, -2220.72314453125, 3982.51806640625], [123.93899536132812, -444.8885192871094, 4142.21044921875, -147.37429809570312, -113.5108413696289, 4439.60107421875, 15.768302917480469, 402.3766784667969, 4652.857421875, 475.97479248046875, 908.0042724609375, 4736.1279296875, 1045.2791748046875, 1262.2919921875, 4688.4384765625], [-260.7402038574219, -4267.42236328125, 1362.71826171875, -439.22900390625, -4061.337158203125, 1415.414794921875, -700.579833984375, -3568.63671875, 1369.3770751953125, -945.9014892578125, -2998.18408203125, 1254.4371337890625, -1093.124267578125, -2535.396240234375, 1107.582275390625], [-1075.8916015625, 917.58544921875, -4613.62109375, -868.4812622070312, 728.2677612304688, -4064.151123046875, -449.9680480957031, 1110.34716796875, -3728.091552734375, 1.7824974060058594, 1824.3306884765625, -3664.145263671875, 332.693115234375, 2574.277587890625, -3847.854736328125], [-1353.3267822265625, -162.84442138671875, -248.3341064453125, -1044.5462646484375, -487.9500427246094, 45.68827819824219, -358.4930419921875, -915.8545532226562, 361.359130859375, 412.1201477050781, -1300.0916748046875, 603.1036376953125, 996.9088134765625, -1540.4268798828125, 727.565673828125], [815.5785522460938, -315.0589599609375, 4252.12451171875, 881.6491088867188, -409.3067321777344, 4016.159423828125, 598.3023681640625, -554.876220703125, 3814.12890625, 124.28955078125, -697.6703491210938, 3696.779052734375, -358.98223876953125, -797.2919311523438, 3678.995849609375], [1409.6112060546875, -1799.779541015625, 6086.66455078125, 1228.58203125, -1637.0340576171875, 5583.00537109375, 533.62841796875, -1647.835693359375, 5161.80712890625, -354.04718017578125, -1790.8258056640625, 4933.685546875, -1112.7626953125, -1989.053466796875, 4917.7802734375], [120.64298248291016, 4190.29833984375, -1963.2978515625, 22.377685546875, 4306.6337890625, -1899.263671875, 410.0224609375, 4054.2763671875, -1723.459716796875, 1064.48193359375, 3589.04541015625, -1506.2001953125, 1735.494384765625, 3101.987548828125, -1302.9913330078125], [-478.90283203125, -2107.73583984375, -2923.065673828125, -578.7255249023438, -2011.4388427734375, -3120.865966796875, -726.0894775390625, -2136.392578125, -3237.888671875, -865.2649536132812, -2397.016357421875, -3253.069091796875, -949.4456176757812, -2681.25927734375, -3180.3681640625], [-2261.366455078125, 2084.965087890625, -15054.5986328125, -2133.213623046875, 1991.6529541015625, -14429.6455078125, -1441.6234130859375, 2254.09033203125, -13955.5166015625, -516.710693359375, 2716.288818359375, -13742.6357421875, 300.45855712890625, 3190.284912109375, -13800.6953125], [-1296.4957275390625, -1854.9554443359375, -5457.22412109375, -1307.109619140625, -1818.7313232421875, -5164.73388671875, -1088.6343994140625, -1535.887939453125, -4970.02490234375, -755.5654907226562, -1143.684814453125, -4912.1396484375, -433.0458679199219, -786.8465576171875, -4983.88232421875], [206.68212890625, 1133.7041015625, 157.95166015625, 142.56016540527344, 1206.076171875, 155.73757934570312, 151.94183349609375, 1232.0052490234375, 167.25216674804688, 217.3203125, 1214.15625, 187.36843872070312, 310.7302551269531, 1169.58349609375, 208.177001953125], [-622.1055908203125, -2651.444091796875, -2587.8408203125, -931.5738525390625, -2288.78173828125, -2435.699462890625, -1052.732421875, -1693.367919921875, -2374.0048828125, -981.664306640625, -1092.037353515625, -2405.952880859375, -766.7247314453125, -659.7396240234375, -2508.7421875], [-1006.4518432617188, 650.9466552734375, -8976.1064453125, -442.52886962890625, -25.292701721191406, -9435.771484375, -426.4418029785156, -1207.501953125, -9691.689453125, -856.4859008789062, -2434.32177734375, -9706.0478515625, -1538.35498046875, -3342.616943359375, -9510.3623046875], [-106.57168579101562, 444.57501220703125, -3409.51025390625, -241.20425415039062, 594.0665283203125, -3441.196533203125, -300.89129638671875, 687.7753295898438, -3456.450439453125, -281.5152587890625, 710.2107543945312, -3451.8583984375, -197.92262268066406, 674.4603881835938, -3434.578125], [-1165.701416015625, 3361.11328125, -6466.017578125, -988.962646484375, 3182.225341796875, -6212.322265625, -305.3409423828125, 2766.155029296875, -5894.29638671875, 570.6084594726562, 2287.90869140625, -5617.5361328125, 1317.068603515625, 1902.2362060546875, -5435.01708984375], [386.33905029296875, -143.3192596435547, 5688.6796875, 518.1959228515625, -285.62127685546875, 5772.51171875, 554.4765625, -260.2463684082031, 5800.1201171875, 502.30828857421875, -110.31785583496094, 5773.05029296875, 388.8757629394531, 84.70791625976562, 5706.650390625], [214.80628967285156, 1310.864990234375, -812.945556640625, 329.24462890625, 1182.2435302734375, -805.0610961914062, 310.658203125, 1145.3519287109375, -824.496337890625, 191.15513610839844, 1190.8038330078125, -859.764404296875, 22.232879638671875, 1283.04736328125, -903.0775146484375], [121.9601821899414, 1513.2869873046875, 7050.2646484375, 463.98193359375, 1154.25634765625, 7385.12451171875, 950.3613891601562, 995.9893798828125, 7642.81298828125, 1399.71484375, 1040.847900390625, 7759.88720703125, 1661.368896484375, 1220.5474853515625, 7734.05419921875], [759.3345947265625, -156.31832885742188, 5307.443359375, 700.5628662109375, -96.06267547607422, 5229.888671875, 537.83203125, -17.122262954711914, 5150.52197265625, 343.58447265625, 54.3128662109375, 5091.15283203125, 187.08126831054688, 98.5164794921875, 5063.9599609375], [250.13912963867188, 2164.627197265625, -7476.8564453125, 388.51104736328125, 1977.219482421875, -7850.0146484375, 69.99557495117188, 1582.3145751953125, -8130.38427734375, -514.4715576171875, 1142.14892578125, -8251.4990234375, -1137.91357421875, 795.784912109375, -8211.923828125], [198.58355712890625, 339.07568359375, 7781.42236328125, 326.1103515625, 193.35362243652344, 7766.9169921875, 725.4984130859375, -352.6316223144531, 7884.07177734375, 1216.654296875, -1049.696044921875, 8075.58740234375, 1622.6610107421875, -1655.5955810546875, 8288.1376953125], [2222.615234375, 3537.923828125, 5648.2919921875, 2010.80126953125, 3760.02587890625, 5438.74560546875, 1522.98828125, 4059.1025390625, 5212.654296875, 968.5222778320312, 4330.36376953125, 5039.291015625, 542.721923828125, 4503.21923828125, 4949.2158203125], [-653.7229614257812, -496.0007019042969, -1735.553955078125, -503.099853515625, -653.375244140625, -1581.86376953125, -303.58734130859375, -695.5958862304688, -1471.45703125, -128.20274353027344, -635.579833984375, -1428.6163330078125, -33.960601806640625, -518.466064453125, -1452.6453857421875], [-1.1900544166564941, -2449.06201171875, 3140.59033203125, 147.99615478515625, -2619.8896484375, 3111.809814453125, 7.72314453125, -2609.13525390625, 3030.326171875, -320.7407531738281, -2459.7470703125, 2928.5810546875, -704.1886596679688, -2252.635498046875, 2832.34130859375], [-1052.7320556640625, -2386.84228515625, -54.350830078125, -1294.5169677734375, -2076.80712890625, 386.48516845703125, -945.6318359375, -1531.4566650390625, 718.3451538085938, -232.87088012695312, -963.7659301757812, 864.8272705078125, 562.71533203125, -542.0781860351562, 819.7406005859375], [915.0737915039062, -1301.205322265625, 1901.189697265625, 790.7652587890625, -1216.2598876953125, 1229.70068359375, 183.44805908203125, -1656.00732421875, 765.7067260742188, -619.3618774414062, -2374.8798828125, 607.471435546875, -1323.8424072265625, -3089.446044921875, 746.5802001953125], [504.5409240722656, -524.1170654296875, -5937.54150390625, 135.59144592285156, -130.97262573242188, -6231.32861328125, -516.5664672851562, 299.2510986328125, -6527.2451171875, -1190.605224609375, 632.0725708007812, -6737.0283203125, -1651.47265625, 797.9807739257812, -6829.5322265625], [-576.4032592773438, -2005.662841796875, -4559.0478515625, -517.9395141601562, -2079.24951171875, -4652.12158203125, -668.3770141601562, -2114.11328125, -4750.28076171875, -938.4708251953125, -2109.616943359375, -4823.86767578125, -1224.02978515625, -2075.219970703125, -4860.9736328125], [626.4644165039062, -102.60491943359375, 11971.1591796875, 431.7309875488281, 162.5907440185547, 12514.232421875, 829.0165405273438, 805.93212890625, 12897.291015625, 1575.5311279296875, 1554.466552734375, 13036.90625, 2380.324462890625, 2163.896728515625, 12940.908203125]], "rank_": 15, "singular_": [2.8540658950805664, 1.7969802618026733, 1.5202913284301758, 1.1176789999008179, 0.8837898373603821, 0.8115411996841431, 0.6962042450904846, 0.38180428743362427, 0.2609451115131378, 0.0001123666952480562, 5.7179160648956895e-05, 2.7627736926660873e-05, 2.4468497940688394e-05, 8.637207429273985e-06, 3.916121386282612e-06], "intercept_": [21732.357421875, -13115.59375, -2169.92919921875, 78849.8359375, -79004.09375, 51055.71484375, 83633.671875, 186376.9375, 33542.52734375, -14805.5986328125, -4703.01806640625, -4895.6123046875, -36310.8671875, -172937.265625, -44604.08203125, -111510.6953125, 237041.53125, 52553.875, -197088.59375, -120816.28125, -128287.125, 2976.102294921875, -105478.328125, 75622.34375, 53174.64453125, 22067.330078125, -72538.96875, -69553.53125, -76586.9609375, 133611.34375, 247255.015625, 157727.203125, -37209.87890625, 109793.9609375, 236104.28125, 57532.60546875, 53113.41796875, -120097.9140625, -18340.37890625, -197585.21875, -112556.6875, 123272.5703125, -162956.578125, -235537.78125, 52326.34765625, 5446.44140625, 40046.6953125, 26348.3125, 133903.296875, 161546.75, -297756.4375]}, "yx_regressor": {"fit_intercept": true, "copy_X": true, "n_jobs": null, "positive": false, "n_features_in_": 51, "coef_": [[-152.27244567871094, -577.5870361328125, -502.8938293457031, -129.60791015625, -594.8255004882812, -521.6962890625, -111.69174194335938, -607.697021484375, -535.9432373046875, -155.1269073486328, -550.1904907226562, -474.24169921875, -133.05764770507812, -532.9093017578125, -456.4036560058594, -127.61295318603516, -503.3908996582031, -425.46905517578125, -97.71012115478516, -489.07666015625, -411.15771484375, -70.87178039550781, -474.6946716308594, -396.86334228515625, -36.12622833251953, -461.5906982421875, -384.04248046875, -3.4644927978515625, -453.2584228515625, -376.2980041503906, 35.94499206542969, -446.4444274902344, -370.3144836425781, 74.60858154296875, -444.77276611328125, -369.6146240234375, 116.34466552734375, -441.8828125, -367.8822021484375, 157.71734619140625, -444.0749206542969, -371.34613037109375, 197.65713500976562, -446.5414733886719, -375.1636962890625, 235.71449279785156, -448.0782470703125, -377.88018798828125, 268.3310852050781, -450.170166015625, -381.017822265625], [-167.3075714111328, -415.6482238769531, -478.58795166015625, -158.4415740966797, -400.4233703613281, -502.41552734375, -163.1520233154297, -395.674072265625, -527.6768798828125, -152.40481567382812, -416.35736083984375, -442.68670654296875, -124.45458984375, -400.14556884765625, -421.5087890625, -104.69708251953125, -396.5032958984375, -384.823486328125, -72.92642211914062, -375.7685241699219, -369.0000915527344, -46.01889419555664, -358.68212890625, -354.3041076660156, -14.735893249511719, -336.9144287109375, -342.6976318359375, 14.160667419433594, -315.50079345703125, -335.9270324707031, 45.2196044921875, -291.0010986328125, -333.0684509277344, 74.0291748046875, -266.2948303222656, -335.9676513671875, 103.89227294921875, -240.81248474121094, -338.8194885253906, 130.09800720214844, -215.99465942382812, -348.47369384765625, 156.8643798828125, -190.99728393554688, -357.32080078125, 179.25978088378906, -169.36846923828125, -366.82281494140625, 201.56161499023438, -148.64312744140625, -373.73004150390625], [24.824447631835938, 1365.0142822265625, 641.1136474609375, 14.107730865478516, 1352.619384765625, 666.5023193359375, 4.853572845458984, 1358.177001953125, 702.1224975585938, 27.37228775024414, 1332.4295654296875, 604.555419921875, 17.59365463256836, 1276.1497802734375, 583.9845581054688, 15.967716217041016, 1232.0291748046875, 549.0430297851562, 2.7542858123779297, 1169.2073974609375, 535.3782958984375, -9.30550765991211, 1114.1387939453125, 524.546630859375, -25.08481216430664, 1050.37939453125, 518.239990234375, -39.90565490722656, 993.4755249023438, 514.9911499023438, -58.00712585449219, 931.4513549804688, 517.9348754882812, -75.8795166015625, 875.371826171875, 525.5570068359375, -95.2850341796875, 815.920654296875, 535.1360473632812, -114.6368408203125, 764.309814453125, 551.7244873046875, -133.2503662109375, 712.6639404296875, 565.8758544921875, -151.189453125, 667.046875, 583.4064331054688, -166.38555908203125, 624.3142700195312, 594.3458251953125], [143.61685180664062, -139.647705078125, 185.08578491210938, 126.39080047607422, -108.44110870361328, 185.18296813964844, 113.29183959960938, -97.99542236328125, 171.00732421875, 145.3647918701172, -143.8712158203125, 182.94338989257812, 127.55073547363281, -115.17814636230469, 180.01522827148438, 122.54719543457031, -111.71729278564453, 174.0821990966797, 98.91421508789062, -73.89971160888672, 169.1171875, 77.79060363769531, -42.91874694824219, 161.75624084472656, 50.60409927368164, -2.9071731567382812, 152.14724731445312, 25.153793334960938, 36.868080139160156, 145.86537170410156, -5.52093505859375, 82.85597229003906, 136.24937438964844, -35.51471710205078, 129.755859375, 128.76544189453125, -67.80316925048828, 178.15023803710938, 118.39715576171875, -99.69403839111328, 225.8002471923828, 107.99641418457031, -130.52426147460938, 273.73736572265625, 100.17023468017578, -159.815185546875, 315.29644775390625, 88.07840728759766, -185.0179443359375, 355.0460205078125, 82.25822448730469], [243.8430633544922, 377.85528564453125, 589.53369140625, 240.07386779785156, 339.0335998535156, 624.0120239257812, 263.5263366699219, 319.6531066894531, 660.5550537109375, 208.51681518554688, 405.5439147949219, 537.2662353515625, 160.76284790039062, 398.217529296875, 506.6007995605469, 120.00253295898438, 421.26312255859375, 453.2115173339844, 69.48779296875, 404.6138916015625, 430.26580810546875, 27.753448486328125, 393.42559814453125, 408.79119873046875, -18.23961639404297, 374.1252746582031, 391.86981201171875, -60.28074645996094, 350.7835693359375, 381.9768371582031, -102.42566680908203, 321.395751953125, 377.65533447265625, -140.0526123046875, 286.73193359375, 381.848388671875, -177.8623046875, 252.16490173339844, 385.8284912109375, -207.5711212158203, 213.63290405273438, 399.74688720703125, -239.6334228515625, 174.55938720703125, 412.5175476074219, -263.2223815917969, 141.36077880859375, 426.17913818359375, -290.4314880371094, 108.91950988769531, 436.1241760253906], [25.52488899230957, -342.30450439453125, -92.3669204711914, 20.811603546142578, -327.0551452636719, -97.7579345703125, 16.52891731262207, -323.3116149902344, -110.27928924560547, 26.563962936401367, -339.58978271484375, -84.21826171875, 23.70992660522461, -319.3470153808594, -81.52195739746094, 23.686447143554688, -311.7289123535156, -76.17546081542969, 18.883880615234375, -286.6127014160156, -74.89852142333984, 14.531840324401855, -265.5541076660156, -75.0706787109375, 8.67247200012207, -239.35073852539062, -77.01921081542969, 3.141047477722168, -214.21841430664062, -78.43714904785156, -3.800909996032715, -185.68759155273438, -82.38587188720703, -10.69342041015625, -157.57200622558594, -86.60072326660156, -18.195693969726562, -128.357666015625, -92.20230102539062, -25.860824584960938, -100.55924987792969, -99.36013793945312, -33.1787109375, -72.6031723022461, -105.09783935546875, -40.33381652832031, -48.2720947265625, -113.02603149414062, -46.266326904296875, -25.11792755126953, -117.39171600341797], [-0.7860850691795349, 224.77418518066406, 354.5069580078125, -3.1873245239257812, 215.3959503173828, 364.99822998046875, -5.397027015686035, 216.32337951660156, 381.86614990234375, -0.4650488495826721, 211.7596435546875, 339.27972412109375, -1.772587537765503, 183.96986389160156, 331.14251708984375, -1.595587968826294, 164.88597106933594, 317.19036865234375, -3.980848789215088, 133.24758911132812, 312.10992431640625, -6.144227027893066, 105.80669403076172, 308.4922790527344, -9.06955623626709, 73.55769348144531, 307.1343688964844, -12.123440742492676, 44.131954193115234, 306.7122802734375, -15.557456016540527, 11.75775146484375, 309.2362976074219, -19.031173706054688, -18.239105224609375, 313.4637756347656, -22.84466552734375, -49.823516845703125, 318.9162902832031, -26.597824096679688, -78.09548950195312, 327.3114013671875, -30.319995880126953, -106.34883880615234, 334.3383483886719, -33.87754821777344, -131.16036987304688, 343.38037109375, -36.88777160644531, -154.5865020751953, 348.73773193359375], [-122.71223449707031, 179.2130126953125, 332.5010681152344, -119.32150268554688, 196.42532348632812, 314.27642822265625, -132.6331024169922, 207.10955810546875, 298.19354248046875, -101.95585632324219, 159.20074462890625, 360.4034423828125, -71.05665588378906, 153.48915100097656, 377.0573425292969, -45.985023498535156, 134.3341064453125, 406.4812316894531, -13.3809814453125, 131.85020446777344, 419.4447937011719, 13.689311981201172, 127.97737121582031, 432.3912353515625, 43.86293411254883, 126.6390380859375, 443.2976989746094, 71.41075134277344, 128.37472534179688, 449.9490966796875, 99.44424438476562, 132.47647094726562, 454.45147705078125, 124.76126098632812, 140.223388671875, 453.77764892578125, 150.34817504882812, 147.37063598632812, 453.9539794921875, 170.94061279296875, 157.9378662109375, 448.8439025878906, 192.88211059570312, 168.67684936523438, 443.94842529296875, 209.59710693359375, 177.53201293945312, 439.37969970703125, 228.17669677734375, 186.47076416015625, 435.4244384765625], [-50.543739318847656, -260.391845703125, -52.88888931274414, -44.03538513183594, -263.4162292480469, -59.970977783203125, -39.679161071777344, -266.45098876953125, -66.10453796386719, -50.3569450378418, -252.75747680664062, -42.68046188354492, -42.512115478515625, -246.18206787109375, -36.008914947509766, -39.698448181152344, -237.5466766357422, -24.6654052734375, -29.63552474975586, -231.2235870361328, -19.675151824951172, -20.672161102294922, -225.26832580566406, -14.820674896240234, -9.332712173461914, -219.1087646484375, -10.594745635986328, 1.2501220703125, -214.3651123046875, -8.331522941589355, 13.803590774536133, -209.65585327148438, -6.6346869468688965, 25.9940185546875, -206.3739013671875, -6.835365295410156, 39.06401062011719, -202.62509155273438, -6.80340576171875, 51.802406311035156, -200.4230499267578, -8.6968994140625, 64.16925048828125, -198.2445068359375, -10.559707641601562, 75.76341247558594, -196.16763305664062, -12.266250610351562, 85.90532684326172, -194.39344787597656, -13.79570198059082], [1.4992834329605103, 208.2405242919922, -525.5965576171875, 4.8427863121032715, 194.07579040527344, -518.9881591796875, 8.5349702835083, 190.69862365722656, -506.27862548828125, -0.2129286527633667, 205.18515014648438, -534.0978393554688, 0.8594986200332642, 185.80221557617188, -538.69677734375, -0.20673930644989014, 178.07177734375, -545.98681640625, 2.0618624687194824, 154.05813598632812, -548.105224609375, 4.230912208557129, 133.8583984375, -548.8798217773438, 7.372354030609131, 108.79861450195312, -547.9009399414062, 10.691859245300293, 84.8541488647461, -547.2207641601562, 14.701126098632812, 57.73025131225586, -543.865478515625, 18.840972900390625, 31.124032974243164, -539.8860473632812, 23.430511474609375, 3.3681640625, -534.7786865234375, 28.044601440429688, -22.9029541015625, -527.69287109375, 32.63232421875, -49.305877685546875, -522.05322265625, 37.29168701171875, -72.3316650390625, -514.3851318359375, 40.986846923828125, -94.18017578125, -510.00341796875], [11.089030265808105, -797.5868530273438, -1256.8936767578125, -4.190468788146973, -764.05126953125, -1260.1661376953125, -24.551189422607422, -748.0765991210938, -1272.65625, 24.73700523376465, -818.2808227539062, -1252.550537109375, 22.707962036132812, -810.390869140625, -1251.1053466796875, 31.448253631591797, -827.8712158203125, -1249.22314453125, 24.8978214263916, -811.1344604492188, -1249.6107177734375, 17.98726463317871, -799.30126953125, -1251.906005859375, 6.47349214553833, -780.1529541015625, -1255.820068359375, -4.598388195037842, -757.818603515625, -1258.8026123046875, -20.632678985595703, -730.3944091796875, -1264.305419921875, -37.62347412109375, -698.7825927734375, -1269.1148681640625, -56.7705078125, -667.1019287109375, -1275.785400390625, -78.21966552734375, -632.6575927734375, -1283.442626953125, -97.8045654296875, -597.5559692382812, -1289.69970703125, -118.62603759765625, -567.61572265625, -1298.3447265625, -134.33502197265625, -538.4957275390625, -1302.876953125], [-53.217979431152344, -330.92974853515625, -356.8463134765625, -44.001434326171875, -335.0561218261719, -366.6833190917969, -37.50354766845703, -339.58843994140625, -375.8277587890625, -53.122623443603516, -319.195556640625, -342.179443359375, -43.07844924926758, -308.2515869140625, -332.98052978515625, -39.76348876953125, -294.72589111328125, -317.4033508300781, -26.34683609008789, -284.0511169433594, -310.44903564453125, -14.401985168457031, -274.122314453125, -303.7536315917969, 0.8237934112548828, -263.7422180175781, -298.0608215332031, 15.13077163696289, -255.51515197753906, -294.52471923828125, 32.09825897216797, -247.2156219482422, -292.4222106933594, 48.672393798828125, -241.1106414794922, -292.8692321777344, 66.4974365234375, -234.31680297851562, -293.160400390625, 83.90608215332031, -229.84298706054688, -296.40557861328125, 100.83676147460938, -225.46705627441406, -299.2952880859375, 116.76512145996094, -221.3983154296875, -302.082763671875, 130.62767028808594, -217.77755737304688, -304.3832092285156], [7.521180629730225, 284.6858825683594, 489.7535400390625, 1.1123154163360596, 294.24346923828125, 491.4129943847656, -5.200727939605713, 299.1269226074219, 490.3202819824219, 10.010686874389648, 277.5374755859375, 486.8947448730469, 5.9499711990356445, 278.6571350097656, 484.6751708984375, 6.378969669342041, 272.4301452636719, 480.83807373046875, 0.17456293106079102, 275.8619689941406, 478.65789794921875, -5.590592384338379, 278.0623474121094, 476.0879821777344, -13.420985221862793, 282.16595458984375, 473.2341613769531, -20.94968605041504, 287.3484191894531, 471.501220703125, -30.319360733032227, 293.9572448730469, 469.2532958984375, -39.712127685546875, 301.9102478027344, 467.8404541015625, -49.996826171875, 309.8825378417969, 465.927734375, -60.397705078125, 318.89501953125, 464.33819580078125, -70.42948913574219, 328.00799560546875, 463.33868408203125, -80.34994506835938, 335.7586669921875, 461.4639892578125, -88.49565124511719, 343.3155517578125, 460.7006530761719], [35.17341613769531, 656.111328125, 813.2831420898438, 41.97066116333008, 628.9664306640625, 824.1178588867188, 56.90087890625, 616.9381103515625, 841.3944091796875, 21.196674346923828, 669.8445434570312, 797.42138671875, 12.14091968536377, 658.795654296875, 788.8212890625, -0.6625385284423828, 668.7532348632812, 774.2368774414062, -7.959495544433594, 650.4327392578125, 768.7901611328125, -13.281035423278809, 636.5895385742188, 764.9241943359375, -17.218605041503906, 616.33056640625, 763.2520141601562, -20.537906646728516, 594.2054443359375, 762.7083129882812, -21.437213897705078, 567.5863647460938, 765.1721801757812, -20.93365478515625, 538.202880859375, 769.359375, -19.4134521484375, 508.47808837890625, 774.7222900390625, -15.042236328125, 477.19744873046875, 783.22021484375, -12.08966064453125, 445.44989013671875, 790.4432983398438, -6.77923583984375, 418.238525390625, 799.4918212890625, -4.732940673828125, 391.9095764160156, 804.9375610351562], [53.47369384765625, -431.4154052734375, -139.06744384765625, 53.18102264404297, -427.1181945800781, -142.15048217773438, 55.86541748046875, -428.85455322265625, -149.9761505126953, 49.604225158691406, -420.9089660644531, -135.5277862548828, 44.35110855102539, -402.38470458984375, -133.52037048339844, 39.87220764160156, -388.0374755859375, -130.84075927734375, 34.41166305541992, -367.3222961425781, -130.39537048339844, 29.918420791625977, -349.1895751953125, -130.9392547607422, 24.99517250061035, -328.16534423828125, -132.60105895996094, 20.461334228515625, -309.3576354980469, -133.733154296875, 15.987347602844238, -288.8656005859375, -136.5274658203125, 11.99176025390625, -270.2815246582031, -139.28775024414062, 8.008270263671875, -250.58078002929688, -143.00741577148438, 4.882354736328125, -233.43795776367188, -147.3013916015625, 1.520050048828125, -216.29653930664062, -150.96409606933594, -0.9041595458984375, -201.15093994140625, -156.0747528076172, -3.7765350341796875, -186.9626922607422, -158.8198699951172]], "rank_": 51, "singular_": [5.295845031738281, 3.3757684230804443, 3.151921272277832, 2.1192119121551514, 1.8885998725891113, 1.8589311838150024, 1.4638522863388062, 1.279767394065857, 1.1969174146652222, 1.0634756088256836, 1.003121256828308, 0.9516023993492126, 0.9028273820877075, 0.8683702349662781, 0.8328799605369568, 0.8205103874206543, 0.7837408781051636, 0.767270028591156, 0.7264571785926819, 0.7055462002754211, 0.6960167288780212, 0.6786337494850159, 0.6697027683258057, 0.6517210602760315, 0.6125602722167969, 0.6090707182884216, 0.5853002071380615, 0.5534168481826782, 0.5148412585258484, 0.49495652318000793, 0.47109100222587585, 0.45983654260635376, 0.4277816116809845, 0.39991945028305054, 0.3684709072113037, 0.3257770538330078, 0.2895769774913788, 0.2535719573497772, 0.24151933193206787, 0.22345387935638428, 0.18610909581184387, 0.17586150765419006, 0.08590570092201233, 0.06846024096012115, 0.05249558016657829, 9.893099922919646e-05, 3.515690332278609e-05, 2.2919242837815545e-05, 2.2282369172899053e-05, 1.2537865586637054e-05, 5.328247425495647e-06], "intercept_": [68198.2109375, 52456.49609375, -119934.578125, -15138.234375, -55640.36328125, 23899.59765625, -26226.7109375, -43800.72265625, 19897.484375, 27558.732421875, 147142.78125, 42271.6640625, -54357.546875, -100141.0546875, 33880.83203125]}}, "fg_topology": {"serial": {"0": 78915, "1": 78916, "2": 78917, "3": 78918, "4": 78919, "5": 78920, "6": 78921, "7": 78922, "8": 78923, "9": 78924, "10": 78925, "11": 78926, "12": 78927, "13": 78928, "14": 78929, "15": 78930, "16": 78931, "17": 78932, "18": 78933, "19": 78934, "20": 78935, "21": 78936, "22": 78937, "23": 78938, "24": 78939, "25": 78940, "26": 78941, "27": 78942, "28": 78943, "29": 78944, "30": 78945, "31": 78946, "32": 78947, "33": 78948, "34": 78949, "35": 78950, "36": 78951, "37": 78952, "38": 78953, "39": 78954, "40": 78955, "41": 78956, "42": 78957, "43": 78958, "44": 78959, "45": 78960, "46": 78961, "47": 78962, "48": 78963}, "name": {"0": "N", "1": "HN", "2": "CA", "3": "HA1", "4": "HA2", "5": "C", "6": "O", "7": "C1", "8": "O1", "9": "C2", "10": "H2A", "11": "H2B", "12": "C3", "13": "H3A", "14": "H3B", "15": "C4", "16": "H4A", "17": "H4B", "18": "C5", "19": "H5A", "20": "H5B", "21": "C6", "22": "H6A", "23": "H6B", "24": "C7", "25": "H7A", "26": "H7B", "27": "C8", "28": "H8A", "29": "H8B", "30": "C9", "31": "H9A", "32": "H9B", "33": "C10", "34": "H10A", "35": "H10B", "36": "C11", "37": "H11A", "38": "H11B", "39": "C12", "40": "H12A", "41": "H12B", "42": "C13", "43": "H13A", "44": "H13B", "45": "C14", "46": "H14A", "47": "H14B", "48": "H14C"}, "element": {"0": "N", "1": "H", "2": "C", "3": "H", "4": "H", "5": "C", "6": "O", "7": "C", "8": "O", "9": "C", "10": "H", "11": "H", "12": "C", "13": "H", "14": "H", "15": "C", "16": "H", "17": "H", "18": "C", "19": "H", "20": "H", "21": "C", "22": "H", "23": "H", "24": "C", "25": "H", "26": "H", "27": "C", "28": "H", "29": "H", "30": "C", "31": "H", "32": "H", "33": "C", "34": "H", "35": "H", "36": "C", "37": "H", "38": "H", "39": "C", "40": "H", "41": "H", "42": "C", "43": "H", "44": "H", "45": "C", "46": "H", "47": "H", "48": "H"}, "resSeq": {"0": 1, "1": 1, "2": 1, "3": 1, "4": 1, "5": 1, "6": 1, "7": 1, "8": 1, "9": 1, "10": 1, "11": 1, "12": 1, "13": 1, "14": 1, "15": 1, "16": 1, "17": 1, "18": 1, "19": 1, "20": 1, "21": 1, "22": 1, "23": 1, "24": 1, "25": 1, "26": 1, "27": 1, "28": 1, "29": 1, "30": 1, "31": 1, "32": 1, "33": 1, "34": 1, "35": 1, "36": 1, "37": 1, "38": 1, "39": 1, "40": 1, "41": 1, "42": 1, "43": 1, "44": 1, "45": 1, "46": 1, "47": 1, "48": 1}, "resName": {"0": "GLYM", "1": "GLYM", "2": "GLYM", "3": "GLYM", "4": "GLYM", "5": "GLYM", "6": "GLYM", "7": "GLYM", "8": "GLYM", "9": "GLYM", "10": "GLYM", "11": "GLYM", "12": "GLYM", "13": "GLYM", "14": "GLYM", "15": "GLYM", "16": "GLYM", "17": "GLYM", "18": "GLYM", "19": "GLYM", "20": "GLYM", "21": "GLYM", "22": "GLYM", "23": "GLYM", "24": "GLYM", "25": "GLYM", "26": "GLYM", "27": "GLYM", "28": "GLYM", "29": "GLYM", "30": "GLYM", "31": "GLYM", "32": "GLYM", "33": "GLYM", "34": "GLYM", "35": "GLYM", "36": "GLYM", "37": "GLYM", "38": "GLYM", "39": "GLYM", "40": "GLYM", "41": "GLYM", "42": "GLYM", "43": "GLYM", "44": "GLYM", "45": "GLYM", "46": "GLYM", "47": "GLYM", "48": "GLYM"}, "chainID": {"0": 0, "1": 0, "2": 0, "3": 0, "4": 0, "5": 0, "6": 0, "7": 0, "8": 0, "9": 0, "10": 0, "11": 0, "12": 0, "13": 0, "14": 0, "15": 0, "16": 0, "17": 0, "18": 0, "19": 0, "20": 0, "21": 0, "22": 0, "23": 0, "24": 0, "25": 0, "26": 0, "27": 0, "28": 0, "29": 0, "30": 0, "31": 0, "32": 0, "33": 0, "34": 0, "35": 0, "36": 0, "37": 0, "38": 0, "39": 0, "40": 0, "41": 0, "42": 0, "43": 0, "44": 0, "45": 0, "46": 0, "47": 0, "48": 0}, "segmentID": {"0": "", "1": "", "2": "", "3": "", "4": "", "5": "", "6": "", "7": "", "8": "", "9": "", "10": "", "11": "", "12": "", "13": "", "14": "", "15": "", "16": "", "17": "", "18": "", "19": "", "20": "", "21": "", "22": "", "23": "", "24": "", "25": "", "26": "", "27": "", "28": "", "29": "", "30": "", "31": "", "32": "", "33": "", "34": "", "35": "", "36": "", "37": "", "38": "", "39": "", "40": "", "41": "", "42": "", "43": "", "44": "", "45": "", "46": "", "47": "", "48": ""}}, "cg_topology": {"serial": {"0": 1, "1": 2, "2": 3, "3": 4, "4": 5}, "name": {"0": "BB", "1": "C1", "2": "C2", "3": "C3", "4": "C4"}, "element": {"0": "B", "1": "C", "2": "C", "3": "C", "4": "C"}, "resSeq": {"0": 1, "1": 1, "2": 1, "3": 1, "4": 1}, "resName": {"0": "GLYM", "1": "GLYM", "2": "GLYM", "3": "GLYM", "4": "GLYM"}, "chainID": {"0": 0, "1": 0, "2": 0, "3": 0, "4": 0}, "segmentID": {"0": "", "1": "", "2": "", "3": "", "4": ""}}}
